19173 15
the -0.3863949 -0.20205575 0.6539213 0.19530784 -0.053006746 -0.6067851 0.78584296 0.17409144 -0.25557315 0.12364355 0.011851431 0.15657759 -0.034503054 -0.36814672 -0.10775754
to -0.20316711 -0.12107126 0.37903875 -0.17500532 -0.005582392 -0.011377871 1.0899451 0.44881254 -0.2632687 0.20049843 0.09185742 0.2855522 -0.10325903 -0.18886504 0.35879725
i -0.18258788 -0.19442649 0.61732715 -0.15474042 -0.5882415 -0.18016839 0.6694816 0.6803046 -0.413928 -0.012669172 0.21535179 -0.09777747 0.10245775 -0.22596154 0.39589402
and -0.28758404 -0.18519232 0.39887553 0.053461317 -0.09579497 -0.39362347 0.7801186 0.47918612 -0.24844757 0.091366306 0.11209191 0.26158115 0.0696941 -0.20740913 -0.08596351
that -0.25251585 -0.19023484 0.45481813 0.13347605 -0.28324857 -0.30122882 0.6480878 0.3514626 -0.62354183 0.12941942 0.035885595 0.21362442 -0.122845694 -0.28712845 0.24133837
</s> -0.23261635 -0.23388322 0.43773136 -0.111949794 -0.20211004 -0.1949333 0.3703502 0.41709432 -0.54080784 -0.07673123 0.24459007 0.037159383 0.04844692 -0.61098266 0.3894798
was -0.46321276 -0.24070334 0.42105594 0.12709975 -0.74455184 -0.46740416 0.42499897 0.56391966 -0.2784545 -0.019696245 0.07938925 -0.10605535 -0.12926112 -0.63948363 0.09732373
you 0.00644769 -0.6351508 0.31313825 -0.10178469 0.10369955 0.08353743 0.7391516 0.57928944 -0.85021657 0.08531329 0.32275924 0.4271119 0.1588125 -0.17337854 0.54034823
of -0.2887683 -0.20927918 0.46085513 0.53484786 0.11526495 -0.61332977 0.6022705 0.038961112 -0.3631077 0.17527594 0.15305783 0.20069122 0.18406622 -0.5315511 -0.10150914
in -0.20177948 -0.30320454 0.5749442 0.48451236 -0.06773114 -0.42790982 0.6139685 0.2726366 -0.19514777 0.051033076 0.070551515 -0.046044156 -0.13691327 -0.5573243 -0.013225645
a -0.30748945 -0.14944515 0.7002717 0.29816273 -0.15313894 -0.40555835 0.45464784 0.44476637 -0.39855912 -0.050807673 0.16658282 -0.029252216 0.22505559 -0.28538054 0.12631522
we -0.14107224 -0.26803982 0.7008581 0.07283127 -0.10092294 -0.016096503 1.0482512 0.3578422 -0.19152725 0.16902077 0.1993689 0.4203838 -0.22076192 -0.16560829 0.060177058
they -0.43052843 -0.15182853 0.28646445 -0.0644181 -0.7314539 0.042199355 1.1196133 0.5918058 -0.23448376 0.1202 0.051947925 0.13203283 0.24260323 -0.24441613 -0.2616899
were -0.42758626 -0.5497096 0.38153473 0.41553593 -0.5407834 -0.05756038 0.90744895 0.37607467 -0.25542971 0.19604294 -0.099548735 0.10423958 0.23488821 -0.39823127 -0.51188225
he -0.5314418 -0.16363883 0.29288673 -0.11271685 -0.805038 -0.45565048 0.58964056 0.72762287 -0.3439432 -0.28903326 0.22243349 -0.16947925 0.12535521 -0.41081882 0.45818925
is -0.3354543 -0.15486772 0.5531653 0.05306223 -0.2433824 -0.16744258 0.12928191 0.35158336 -0.7547663 -0.34246987 0.5422907 0.28368434 0.04284829 -0.6326157 0.43472347
it -0.061579734 -0.13079035 0.6885274 0.21472088 -0.35726595 -0.40458328 0.3511842 0.42002958 -0.6559394 0.27622926 0.1262252 0.012476638 0.019859456 -0.34587377 0.2198219
at -0.48572516 -0.4416641 0.8001087 0.21841288 -0.46782452 -0.21249807 0.5573725 0.6874517 -0.09325236 0.08111502 0.17577946 -0.23236017 -0.17298806 -0.5066684 0.07865528
this -0.19198316 -0.21695428 0.5460053 0.24065682 -0.1584095 -0.41842857 0.6339914 0.23450816 -0.63286287 0.097019956 0.13420194 0.22507322 -0.07072307 -0.27334774 0.18222874
my -0.3915912 0.017741948 0.2516734 -0.22161162 -0.52270275 -0.5054705 0.62839836 0.9111109 -0.17791487 -0.13235104 0.8742927 -0.02756381 0.13187212 -0.33266628 0.11652206
there -0.40880877 -0.3028712 0.7214943 0.10598424 -0.40660867 0.00021373433 0.7209212 0.3967323 -0.47511658 0.1029511 0.11901177 -0.060485765 -0.103615515 -0.40769553 -0.23090723
not -0.39643195 0.013685057 0.38374168 0.13768268 -0.5198189 -0.033044647 0.6645681 0.33092445 -0.6008421 0.07499106 0.17234704 0.20472436 0.13185887 -0.3323388 0.43559587
me -0.12911743 -0.11424577 0.29156914 -0.344263 -0.7179593 -0.078407854 1.0729705 0.86941266 -0.37866485 -0.16944806 0.031256378 0.0022282898 0.27616638 -0.0076422095 0.18157476
have -0.14339621 -0.3105531 0.33809128 0.3381236 0.15777674 -0.14810932 0.8156553 0.28952333 -0.9033511 0.10501253 0.50995487 0.16326973 0.11623275 -0.11017649 0.2214456
for 0.059397887 -0.2929842 0.42377007 0.34638843 0.19774976 -0.120730065 1.0452752 0.34043333 -0.30967027 0.18487053 0.36234447 0.05096658 0.25473714 -0.09785949 0.33536562
on 0.0074397326 -0.29459715 0.7079177 -0.23268415 -0.13457987 -0.9061917 0.7061927 0.3806191 -0.24776834 0.48355728 0.14019085 -0.33650586 -0.0069226027 -0.5104859 -0.10963619
with -0.48704174 -0.21405737 0.26445812 0.059305605 -0.036622103 -0.33373514 0.76304007 0.5076847 -0.34916916 0.1312007 0.07302022 0.120893285 0.24614757 -0.22529829 0.13584337
who -0.57467186 -0.5932449 0.105513506 0.27948058 -0.315004 -0.116675675 0.98910016 0.3028391 -0.42239445 -0.5037693 0.21629918 0.4709372 0.18027677 -0.33012953 -0.110500075
as -0.5091001 -0.1582179 0.4290732 0.36112404 0.002879858 -0.30431738 0.4635091 0.36881804 -0.5265365 -0.029047832 0.10130047 0.36465907 -0.14294946 -0.41099238 0.14220452
what -0.25691253 -0.44266155 0.43069467 0.09785131 -0.47496048 -0.049061388 0.52773 0.36055875 -0.911605 0.22405757 0.2982764 0.27839434 -0.10826588 -0.37637538 0.44418535
are -0.16871852 -0.5235155 0.4754597 0.37914312 0.057380542 0.29686794 0.6551931 0.41542023 -0.5819309 -0.09498613 0.53520143 0.5618625 0.41140303 -0.2322679 0.16840097
your -0.27262685 -0.7740757 0.05835304 -0.057661247 0.29157582 -0.36344537 0.7471573 0.46644157 -0.93553656 0.23089251 0.9818893 0.4418923 0.090522476 -0.26064438 0.4756289
people -0.34860945 -0.4768687 0.36760277 0.54629505 -0.39802822 0.20523597 0.93071526 0.2690866 -0.3700236 0.07212633 0.067959934 0.68363684 0.1490874 -0.26837224 -0.39732772
had -0.39221057 -0.039740123 0.19284116 0.24831967 -0.47441453 -0.55077094 0.8082663 0.5241658 -0.3107418 0.11095957 0.14816852 -0.113497116 -0.1006025 -0.30542153 -0.052386895
because -0.29851857 -0.057723902 0.41916668 0.32677656 -0.77824247 0.03420556 0.6999618 0.54891247 -0.36700216 0.117381565 0.3198756 0.20123328 0.13619678 -0.2140295 0.22039026
said -0.3518707 -0.25118417 0.3555087 -0.46862543 -0.80224144 -0.029427692 0.8970777 0.65757257 -0.37193638 -0.284725 0.1582574 0.20851634 0.16810083 -0.31351653 0.3495407
be 0.0344823 0.07805157 0.29575613 0.25369382 -0.02425015 -0.12581843 0.9600759 0.17681155 -0.5098292 0.19339973 0.061645597 0.43075404 -0.047172666 -0.21855146 0.36035043
when -0.2578782 -0.43737552 0.58039093 -0.06473898 -0.7029096 -0.32324073 0.796784 0.66722846 -0.18556754 -0.0042208545 0.2382348 -0.045533538 -0.106983684 -0.3548128 -0.08665558
but -0.25473303 -0.14572032 0.6044102 0.22227974 -0.42295137 -0.10854308 0.64820033 0.4249945 -0.5914483 0.06156318 0.30902958 0.11672417 0.10492422 -0.17951189 0.22795385
us -0.07761508 -0.8008219 0.2819898 -0.106730714 -0.013312548 0.0645408 1.0990262 0.5762078 -0.5074404 0.3880443 0.25036705 0.4931698 -0.077723764 -0.09638429 0.2024607
would -0.036090225 -0.07778927 0.30720448 -0.047816698 0.07393631 -0.015835378 0.9965843 0.44077373 -0.5730237 0.45122677 0.05984712 0.28969356 0.12153029 -0.08070319 0.45386457
from -0.3460136 -0.31152257 0.52223104 0.27378443 -0.062594995 -0.27535993 0.78863364 0.53797007 -0.2210195 -0.15145677 0.1322531 -0.08266834 -0.22953705 -0.2848888 -0.046483267
then -0.2921372 -0.1636251 0.5904037 -0.2725154 -0.509676 -0.37606284 0.8312108 0.6799949 -0.0853928 0.10552528 -0.10595326 -0.08181769 0.048320122 -0.3480425 0.08974278
him -0.47248423 0.05122764 0.065222435 -0.49555868 -0.8306048 -0.25028506 1.0190183 0.8530515 -0.43359274 -0.13272695 0.07258003 0.12006387 -0.028091531 -0.2055922 0.27040097
mr -0.36348403 -0.6029632 0.40538388 -0.7537577 0.26462746 -0.3934635 0.44915125 0.4366095 -0.93777895 -0.20026004 -0.53778833 0.26598406 0.09555223 -0.8686775 0.7791935
so -0.037323475 0.014899731 0.41806725 0.09216857 -0.18206745 0.18977779 0.6408705 0.6453513 -0.36920106 0.23466292 0.27789855 0.3235548 -0.029647648 -0.26223856 0.2717368
did -0.39700502 -0.10822085 0.04807733 0.026302582 -0.55368304 0.042494997 1.0084108 0.2880662 -0.54172826 0.21405183 0.1470273 0.048174407 0.015951855 -0.4235245 0.4447194
about -0.04758867 -1.0720924 0.37288976 0.24679634 -0.23912363 0.074293725 0.67434454 0.4276502 -0.682322 0.2599711 0.25723454 0.033488076 -0.010268355 -0.4934916 0.323971
know -0.40669218 -0.41070575 0.28532287 0.19009402 -0.72782737 0.18093619 0.696986 0.4297355 -0.8133054 -0.22059247 0.23135002 0.30449072 0.1004377 -0.30813843 0.34149078
one -0.5457674 -0.5225176 0.53077173 -0.0091198515 -0.24148156 -0.438373 0.51606786 0.45562938 -0.5185379 -0.20919052 0.521537 0.01242154 0.47401327 -0.3848181 -0.15902391
them -0.4876659 -0.12552156 0.29437956 -0.08611286 -0.3680497 0.13275757 1.1443299 0.5151658 -0.3492411 0.028974231 0.038482223 0.3306942 0.23723356 -0.13420665 -0.101872005
police -0.3879539 -0.3452855 0.40275413 0.29674405 -0.690968 -0.1323189 1.1937518 0.31829914 -0.34340456 -0.1684387 -0.46163088 0.0050727003 -0.30991727 -0.4165243 -0.42466632
do -0.30125493 -0.07979643 0.30466557 0.10999106 -0.38636363 0.32012638 0.77232605 0.3537039 -0.85702425 0.031866297 0.4193862 0.36497226 0.29141587 -0.20398946 0.61693454
by -0.31463122 -0.09186852 0.08554649 0.2732066 -0.25943756 -0.44896108 0.62880605 0.39667547 -0.36834604 -0.15487842 -0.24174653 0.22552183 -0.10377605 -0.55680853 -0.09587991
just -0.1546043 -0.43160483 0.69072133 -0.27716503 -0.22961167 0.010207718 0.4804155 0.5622924 -0.69504714 0.3591422 0.39294696 0.17589667 0.26231605 -0.28249177 0.31851864
time -0.041349433 -0.63217413 0.57728624 0.33492878 -0.5743265 -0.22702858 0.57808876 0.6794561 -0.23319252 0.32697716 0.19505708 -0.12848619 0.11607379 -0.3398913 0.2683249
or -0.62560487 -0.07346326 0.20921513 0.3383057 -0.17829093 -0.29756576 0.7253388 0.11350262 -0.59259367 0.23756039 0.07017329 -0.068475515 0.34934682 -0.48580644 0.30305353
can -0.0246938 -0.3064851 0.5446739 -0.2085199 0.22633533 0.23043014 0.77702266 0.56400394 -0.9089175 0.17072433 0.4159294 0.42326084 0.19133191 -0.0983834 0.55394727
will 0.2565252 -0.13041843 0.5591941 -0.33107677 0.41529375 -0.0033101062 1.1791545 0.23333596 -0.5249147 0.2386193 0.39769047 0.58212376 0.15587552 -0.12082746 0.50725365
very 0.47247025 -0.6565754 0.640669 0.45735708 0.14976604 -0.11998803 0.3528105 1.0713282 -0.7243101 -0.012798702 0.39586446 0.6272259 -0.0070647653 0.096935965 0.33285603
if -0.1492409 -0.022515431 0.45151627 -0.14824486 -0.22676378 -0.029100783 0.72795874 0.3355553 -0.9012543 0.22547606 0.14777058 0.3774249 0.24724844 -0.18122596 0.5620001
his -0.61128986 0.044761218 0.12854075 -0.223882 -0.41953367 -0.9036608 0.71558875 0.5640122 -0.48812756 -0.38851482 0.44705543 -0.039110407 0.2935645 -0.21067855 0.23552784
all -0.17797807 -0.25842935 0.49536526 0.30264115 -0.055771485 -0.23849046 0.797285 0.2956127 -0.44891942 0.15347917 0.3490962 0.34838405 0.31827393 -0.14856516 -0.203404
now -0.18924405 -0.48992413 0.6168106 0.020787138 -0.082451165 -0.003239802 0.55170107 0.4705919 -0.47788444 -0.029279813 0.44752806 0.24621794 0.10323988 -0.37259266 0.40753782
no -0.54738456 0.10271114 0.5037408 0.08267969 -0.5902877 0.0055275597 0.5701395 0.29417706 -0.6764384 0.011864066 0.32008997 -0.04850608 0.1280417 -0.46820685 0.4792374
which -0.28148276 -0.020539206 0.55014986 0.40912324 0.20933226 -0.6413152 0.5886844 0.059753787 -0.6430639 0.22143608 0.091422394 -0.02350154 0.056984268 -0.49752218 -0.10187651
also -0.3496169 -0.3692807 0.1536479 0.26651493 -0.042364825 -0.3909165 0.7824545 0.40638828 -0.44447064 -0.18387306 0.2137535 0.2583189 0.026922867 -0.22786811 0.11159706
went -0.4610744 -0.27818123 0.6034528 -0.19442749 -0.5590717 -0.28678635 1.1451017 0.7753442 0.21170491 -0.076912835 0.27615055 -0.2212528 -0.37902972 -0.47141388 -0.18143106
thank 0.58999115 -0.81832844 0.4462134 -0.18635815 1.0860862 0.13819164 0.84154737 0.89508027 -0.9181692 -0.11274583 0.50609607 1.0205288 -0.13345785 -0.28615254 0.6252126
could -0.25972405 0.023931822 0.39747003 -0.13504493 -0.19545712 -0.08873088 0.8018009 0.6381385 -0.55307615 0.4579182 0.20677821 0.2462934 0.0593722 -0.05691164 0.2782457
going -0.16017875 -0.39787284 0.5890716 -0.4484118 -0.112799056 0.19389014 1.004811 0.53865993 -0.22274275 0.23595504 0.22764435 0.49690542 0.056389593 -0.27911055 0.3031981
where -0.6286434 -0.25755292 0.57828075 0.03184232 -0.32590756 -0.0496285 0.77286845 0.60042244 -0.28016984 -0.12736271 0.22524597 -0.01576817 -0.24659155 -0.41314292 -0.032801136
go -0.16052759 0.054587662 0.5931355 -0.27560484 -0.47702247 0.26417243 1.3280599 0.65272045 0.11980496 0.14840823 0.38875318 0.045932353 -0.1923216 -0.31153205 0.4033554
been -0.14541566 -0.3491141 0.08751092 0.4862938 -0.32374257 -0.59833604 0.74592286 0.33283648 -0.76167524 -0.10140123 0.2614053 0.017619025 -0.26688537 -0.25120112 -0.037475307
other -0.72538674 -0.5276127 0.5045168 0.3053141 0.065059744 -0.1929878 0.7826058 0.30660883 -0.418442 0.022962341 0.16833468 0.19536605 0.5063729 -0.310542 -0.22212248
like 0.041116815 -0.42013755 0.28535348 0.11298494 0.19832678 0.14813972 0.76354843 0.51501447 -0.7543173 0.12983373 0.4833867 0.5777041 0.18127413 -0.11488897 0.29597253
came -0.39802787 -0.55783397 0.5518883 -0.2657316 -0.66301584 -0.20895776 1.1156594 0.7876814 0.059487123 -0.10353679 0.05078864 -0.039178595 -0.10223638 -0.34584883 -0.23786075
say -0.11048299 -0.4214851 0.40036482 0.09136781 -0.4501401 0.03667491 0.5945798 0.30051842 -0.76185113 0.12307732 0.19274494 0.48328036 0.20184916 -0.3654624 0.5584396
back -0.13452092 -0.21611544 0.7057993 -0.33702937 -0.3737765 -0.18627204 1.1330397 0.9170812 0.10788008 0.10348198 0.41591468 -0.07740657 -0.22818582 -0.17262882 0.052930903
am -0.065932326 -0.32814822 0.64334387 0.12960613 -0.27046514 0.13449308 0.44451576 0.6927411 -0.46995622 -0.17818214 0.5296911 0.13095742 0.36761764 -0.2911526 0.88776284
these -0.35916692 -0.37337136 0.30188397 0.4929304 -0.11307438 0.06713429 1.001203 0.23020773 -0.6734031 0.14549482 -0.018250348 0.29459924 0.37822947 -0.10138107 -0.47144777
our -0.27413064 -0.13538137 0.6077693 0.35329947 0.19940983 -0.3741285 1.1262858 0.21336891 0.063490056 0.07154872 0.3053273 0.64012885 0.06438639 -0.07147469 -0.04167768
told -0.38841027 -0.36900204 0.2227804 -0.28435686 -0.7351583 -0.06762248 1.1025763 0.6880925 -0.33164302 -0.2632826 0.086695276 -0.008581628 -0.15792866 -0.29600123 0.29184303
any -0.6481308 0.013537842 0.093077675 0.4509321 -0.1206354 0.11713607 0.9300836 -0.050691742 -0.9542516 0.3327233 0.28942066 0.037224516 0.22212547 -0.51718754 0.69998765
an -0.56916904 0.07752912 0.24331895 0.3901247 -0.07272066 -0.6967818 0.59407145 0.21476647 -0.49826723 0.1640979 0.0118534565 0.03351389 0.093220234 -0.44118106 0.33535993
some -0.46665913 -0.21901119 0.44403076 0.4378427 0.1409242 0.059392627 0.9440889 0.5008098 -0.5469456 0.2564167 0.2690924 0.0014127711 0.21285881 -0.03816284 -0.15373047
come 0.089164756 -0.59506184 0.3009728 -0.08524795 -0.09536469 0.17550887 1.3278208 0.45319745 -0.308168 0.18316372 0.23806098 0.57265466 -0.1575984 -0.08102403 0.19328555
after -0.12793253 -0.5465366 0.2706824 -0.038752273 -0.42160195 -0.5299267 1.022204 0.60034883 -0.2001125 0.42018917 0.2164501 -0.5022795 -0.18058282 -0.45358175 0.023322694
out -0.4966265 0.1617041 0.5523092 -0.2777676 -0.38536784 -0.33548453 0.9157921 0.52617705 -0.35002872 0.40934533 0.2065421 0.13578892 0.07575193 -0.21517068 -0.24379739
tell 0.024821881 -1.075835 0.107964054 -0.14689967 -0.18179516 0.07141285 0.9126968 0.6718774 -0.812692 0.32589194 0.5442512 0.49475145 -0.09166722 -0.24632634 0.5149573
yes -0.7075663 -0.4301286 0.5307341 0.12544027 -0.39293543 -0.055009287 0.35183173 0.48397237 -0.7127108 -0.31616947 0.49775785 -0.19928266 0.012691499 -0.66233253 0.6427351
she -0.3802306 -0.21731538 0.25233793 -0.060246333 -0.5801423 -0.38925967 0.5905127 1.0035458 -0.21412967 -0.28510445 0.95571613 -0.001507146 0.123430625 -0.28329465 0.45121074
here 0.067072265 -0.5908742 0.6856186 -0.08235562 -0.021490803 -0.006966786 0.81310064 0.42469114 -0.58310175 -0.42102045 0.37802887 0.51208013 -0.110445805 -0.16723493 0.2678439
house -0.8980244 -0.21702644 0.4168079 -0.487629 -0.5249779 0.0026217978 0.9450946 0.654739 -0.0040666424 0.2010969 0.4955976 0.23735617 0.0010515134 -0.7882962 -0.64507425
their -0.43185854 -0.023986429 0.20554148 0.51414204 0.07520212 -0.23538165 1.1897006 0.1309854 -0.28462476 0.15004031 0.36015233 0.53407985 0.66753244 -0.024389753 -0.43408397
happened -0.042416245 -0.89357626 0.35146654 0.029797519 -0.54866195 -0.077985995 0.67535543 0.38232508 -0.92148685 0.49759766 0.45421657 0.1495231 -0.5647403 -0.5646082 0.33939558
want 0.0036154878 -0.037791405 0.40571278 -0.26371372 -0.2011201 0.40572745 0.647156 0.46037424 -0.75982285 0.121612035 0.22112598 0.80454445 0.16066036 -0.32168818 0.62198424
up 0.14416657 -0.2877947 0.48617345 -0.21279679 -0.44172096 -0.514904 0.99471444 0.6632686 -0.018661201 0.39911932 0.21513996 0.072083384 0.38148 -0.08270165 -0.09025961
how -0.2348966 -0.5360291 0.08538088 0.4176196 -0.3273394 -0.037818775 0.6524318 0.5698769 -0.7369372 0.16381967 0.74723303 0.08453005 0.11123074 -0.2821606 0.32980114
see -0.15458508 -0.017557435 0.64845586 -0.08698641 -0.47241426 -0.12043233 0.8160153 0.6263416 -0.5667504 -0.12218994 0.4033767 0.20646586 -0.01613382 0.03595897 0.06254768
those -0.22492146 -0.4067968 0.30458722 0.57043904 0.02092488 0.0077446504 1.146329 0.055808578 -0.5735784 0.07771398 0.14193116 0.3267161 0.45365873 -0.097521596 -0.370327
think -0.07461257 -0.34441698 0.6267118 0.3323952 -0.3115774 -0.15539959 0.39533395 0.46348312 -0.8723844 0.07104936 0.27103102 0.11695977 0.15471038 -0.22312784 0.3537225
day 0.28178215 -0.8218551 0.6446656 -0.058798794 -0.5683124 -0.47939283 0.85118145 0.4181372 -0.17310923 0.37316313 0.116221756 -0.16515094 -0.28357974 -0.5803747 0.04339348
got -0.44944614 -0.22215599 0.5974739 -0.119849786 -0.46034446 -0.23058406 0.8135471 0.75287855 -0.30337065 -0.1330585 0.53738743 -0.23885305 -0.1486141 -0.28190953 -0.06257933
took -0.25375542 -0.15784605 0.38041416 -0.23287427 -0.447128 -0.35043803 1.1298891 0.73941755 -0.24118121 -0.09685048 0.08897188 -0.45495662 -0.02516965 -0.332652 -0.37781182
still -0.24351887 -0.32806137 0.5482122 0.3605876 -0.5818303 -0.15269683 0.5150453 0.72047937 -0.42252168 -0.30980557 0.755646 -0.044734344 0.19453612 -0.2231518 0.25038934
even -0.11159984 -0.036812775 0.4074689 0.4503787 -0.7223003 -0.04227339 0.7904431 0.41424036 -0.51070076 0.111430906 0.30946067 0.2185355 0.13270772 -0.112778366 0.07605571
take -0.028791169 -0.07007047 0.34885997 -0.578143 0.08402896 -0.1161307 1.3430107 0.61130995 -0.26540208 0.3958431 0.3377078 0.16314277 0.33586916 -0.025545469 0.3465428
has 0.0008516993 -0.26893145 0.29506648 0.31076476 -0.057711553 -0.7194817 0.57454705 0.27040023 -0.7529296 -0.36457694 0.68462974 0.23466223 -0.19577293 -0.2721929 0.4254061
get -0.46926263 0.37328893 0.5135963 0.023847338 -0.07707141 0.26830703 1.0915967 0.6890817 -0.46704182 0.25117218 0.45851833 -0.05410759 0.01217172 0.004765749 0.4414206
well -0.36731744 -0.44215247 0.36986786 0.2870922 -0.048815 -0.17197312 0.58708584 0.6203375 -0.5228818 -0.035712514 0.24655104 0.1910159 0.11064224 -0.16252765 0.3922839
should -0.09153014 0.20560357 0.404631 0.01704563 -0.3720557 -0.07246047 1.2391171 0.17256983 -0.18885401 0.24043438 0.1004718 0.38002306 0.044508982 -0.17234252 0.39046207
asked -0.5336051 -0.18202448 0.2949135 -0.55540085 -0.69124 0.022547882 1.063335 0.7028062 -0.38895187 -0.4279277 0.110662304 0.11603949 0.07145485 -0.3363554 0.2807705
dont -0.4866654 -0.16598442 0.5134383 -0.01733448 -0.62837595 0.23935445 0.6741715 0.58583945 -0.8962593 -0.17042764 0.31764156 0.26135078 0.31919083 -0.09254465 0.51900244
commission 0.32758576 -0.10497746 0.4299227 0.089311354 0.52582175 -0.07982376 1.2450143 -0.21271226 -0.9888361 -0.09333842 0.5916258 0.84519047 -0.34110606 -0.40117007 0.5890888
before 0.14485513 -0.8457919 0.48418596 -0.3774531 0.070310555 -0.34457684 1.0255834 0.1868556 -0.5872872 0.40999836 0.4012273 0.17545699 -0.12205802 -0.4265851 0.2961685
ask 0.031629667 -0.58341515 0.38558695 -0.70515877 0.4314522 0.35778135 1.149923 0.5324304 -0.8292692 0.06568398 0.38678506 0.59921837 0.3569689 -0.31572172 0.70778126
person -0.5974106 -0.10507244 0.120006986 0.056767013 -0.58502907 -0.28104943 0.5901685 0.40767756 -0.8106369 -0.37282693 0.02183167 0.25854707 0.18492192 -0.36046275 0.2010605
home -0.27776518 -0.48241568 0.59351534 -0.1719676 -0.7190137 0.07481072 1.1799169 0.92730254 0.28040534 0.158951 0.75599307 -0.19869746 -0.16920726 -0.5054048 0.13036089
place -0.53983855 -0.33675468 0.59242976 0.13014188 -0.25603423 -0.17466153 0.7941416 0.5165285 -0.111375906 0.32910687 0.2926005 -0.066976726 -0.44718537 -0.619265 -0.17648023
shot -0.67199373 -0.57780796 0.03783655 -0.36803213 -0.9002535 -0.66488874 0.42807826 0.8451214 -0.77786976 0.0898982 0.5195647 0.043543324 -0.36781234 -0.7329942 -0.40231857
two -0.4438584 -0.84579414 0.4591427 0.1945531 0.106288895 -0.2381036 0.94823855 0.49633598 -0.40270385 0.036199547 0.28816473 -0.5978864 0.6592378 -0.42791125 -0.55075735
much 0.56890297 -0.57775915 0.34670672 0.19237566 0.5848716 0.20451383 0.68963414 1.0009924 -0.87545574 -0.019263726 0.5663902 0.7435522 -0.117351174 -0.064855486 0.6152539
only -0.32125783 -0.24459632 0.47861004 0.25761142 -0.35658 -0.27066913 0.6987365 0.37897605 -0.48516938 -0.023083081 0.37010622 -0.086769044 0.22780818 -0.2887094 -0.014145104
into -0.32477427 0.11303779 0.63940763 -0.03674338 -0.1471935 -0.5776088 0.9420875 0.6115683 -0.046268877 0.32423893 -0.03652202 0.2540053 -0.033714946 -0.10225891 -0.6031378
children -0.5301569 -0.5565934 0.15983747 0.42494544 -0.37617338 0.22102877 0.90583074 0.67422205 -0.05622913 0.1341114 1.3445053 0.2855625 0.5775023 -0.45794755 -0.14453161
her -0.44876087 -0.20733172 -0.041127734 -0.43010592 -0.22973865 -0.5741593 0.81376517 0.9158522 -0.4045137 -0.0070909094 0.81301576 0.1306254 0.2231269 -0.17132334 0.25414416
didnt -0.5217227 -0.14459498 0.36326143 -0.1056228 -0.89438826 0.07544268 0.9760969 0.576587 -0.40123641 0.16974749 0.2459202 0.17111328 0.19734906 -0.1678511 0.39671636
statement -0.23733802 -0.63429785 0.4507707 -0.45236766 0.093443826 -0.16123466 0.9487568 -0.1549899 -1.2407328 -0.32712257 0.23885204 -0.039794914 0.15828593 -0.67656696 0.46197656
anc -0.9304889 -0.3110286 0.19557695 0.76829094 -0.25206503 -0.5105189 0.7920534 0.24510577 0.13881437 0.14926454 -0.3234085 0.52681226 0.1419115 -0.83047223 0.570284
why -0.3969585 -0.0969467 0.10373429 -0.053954706 -0.96745116 0.09024552 0.8268551 0.34433612 -0.7465673 0.21556234 0.029291853 0.41458878 0.075120114 -0.4315609 0.36797544
please 0.2516684 -0.78134686 0.54718536 -0.98765963 0.3776367 0.12977012 0.94288695 0.72388166 -0.66680616 0.41477892 0.4237142 0.7365011 0.5281563 -0.34543473 0.72688377
left -0.46040624 -0.28889194 0.59414726 -0.1947761 -0.35344353 -0.4818793 0.8093895 0.90252817 0.04800746 -0.048810612 0.59979975 -0.16430219 -0.012619473 -0.30750227 -0.15474644
give -0.13430795 -0.29694834 0.23463657 -0.30074176 0.3171714 0.046979614 1.2785372 0.34332785 -0.8561348 0.17100362 0.37784758 0.13993205 0.34408844 -0.03114911 0.58008146
must 0.019057676 0.0766766 0.3701296 -0.030607788 -0.4126634 -0.21250317 0.9448337 0.43123612 -0.3000552 0.1356055 0.05113252 0.4492354 0.16825207 -0.05172604 0.4420865
die 0.8323242 0.7741479 -0.20425914 -0.23683311 -0.84160084 0.31419945 0.2436517 1.9331148 -0.49463296 -0.30288267 -0.050806217 0.5748259 -0.24145134 -2.3345995 0.0077687674
son -0.40355274 -0.8480812 -0.14326052 -0.06561332 -0.5819441 -0.3820504 0.7900668 0.67933524 -0.49462157 -0.042898733 1.0510203 0.18539232 -0.09351454 -0.53872395 0.25806755
heard -0.1265529 -0.96178496 0.74019694 -0.18837398 -0.5467583 -0.30468053 0.5369128 0.4547174 -0.90766984 0.10981102 0.27169812 0.32676613 -0.29558152 -0.3142178 -0.457733
being -0.12682292 -0.31972945 0.092093 0.45268485 -0.52377796 -0.30215934 0.71109444 0.25616044 -0.47386414 0.22164246 -0.077038415 0.31763893 0.15750414 -0.40364343 -0.27326915
killed -0.69030935 -0.7938889 -0.42602634 0.2070938 -0.7649753 -0.3798151 0.68942463 0.4033547 -0.7124827 0.04988098 0.41777724 0.48650602 -0.36590382 -0.76365364 -0.14237279
wanted -0.53338754 0.037439987 0.19680323 -0.14637233 -0.66178215 0.09066323 1.1124692 0.52899283 -0.20036854 0.15292975 -0.12154205 0.37016717 0.08009752 -0.27539584 0.37054166
its -0.18170564 -0.24956742 0.67508006 0.45356393 -0.024611134 -0.6585409 0.17161806 0.5250027 -0.5710888 0.04771083 0.38917172 0.34147605 0.26286945 -0.19200908 0.46204162
many -0.12875122 -0.8132068 0.29726467 0.89969814 -0.042961545 -0.06285082 0.8544126 0.24310945 -0.6753784 0.23502898 0.43225363 0.15377384 0.23937647 -0.25133204 -0.5188083
again 0.41411522 -0.48441172 0.63732743 -0.26846614 -0.32440665 -0.33182105 1.0032569 0.5621021 -0.2898256 0.15403265 0.081193805 0.037832417 0.05086814 -0.09958571 0.151354
never -0.117392145 -0.031320225 0.1376642 0.18236811 -0.887945 -0.21005021 0.99793893 0.21745512 -0.63552386 -0.064246245 0.24554273 -0.027592894 -0.13132876 -0.33617747 0.33402064
used -0.5907076 0.060990404 0.2669336 0.35664344 -0.28553757 0.25309655 0.9061092 0.95666784 -0.1752303 0.36693254 -0.30845404 -0.0865998 0.4273279 -0.1879744 -0.062210865
taken 0.14323725 -0.1197428 0.26912555 0.086189106 -0.42415175 -0.3524348 1.3342373 0.42763445 -0.35742298 -0.02970067 0.03781505 -0.43052003 -0.42852685 -0.28175062 -0.3423412
way -0.14930102 -0.108750716 0.5142594 0.28005713 -0.22568715 -0.07825996 0.6369621 0.4889107 -0.43581155 0.21539682 0.19322519 0.41501415 -0.18971509 -0.26897466 -0.009314192
hospital 0.2203557 0.0660762 0.21055315 -0.060385827 -0.57098013 -0.057975553 1.3175423 1.413885 -0.2397331 -0.36277118 0.65172815 -0.800616 -0.92204857 -0.3506019 -0.010139401
case 0.050572332 -0.20882113 0.25123578 -0.052557617 -0.66240025 -0.03686343 1.0665857 -0.49791187 -0.8683321 -0.10566519 0.24876742 -0.13482612 -0.26577854 -1.083693 0.31233644
saw -0.5127474 -0.32707474 0.79815555 -0.2811743 -0.7064145 -0.48388448 0.57135195 0.75344694 -0.45235616 -0.19272035 0.30200878 0.17242841 -0.038315114 -0.36944854 -0.65978885
during 0.036270138 -0.81256574 0.44206077 0.578884 -0.20602813 -0.6323755 0.8024207 0.27382284 -0.29390377 0.64026445 -0.13904002 -0.37986982 -0.29149505 -0.6667788 0.10107356
coming -0.012636615 -0.92156273 0.6521443 -0.06385374 0.2405628 0.020370629 0.8508185 0.871147 -0.46244165 0.106754415 0.28268728 0.80311817 -0.28669843 0.025578035 -0.15154319
anything -0.2378072 -0.034831163 0.27441132 -0.18717965 -0.86291075 0.4516644 0.83415586 0.28303576 -1.0431428 0.16570719 0.35299417 0.2274622 0.070838116 -0.45208448 0.5467917
chairperson -0.21855927 -0.3621214 0.7401283 -0.36915436 0.6069112 -0.4183381 0.3870532 0.20595475 -1.0521356 0.11685836 -0.27135 0.44960707 0.10494068 -0.8028947 0.9098048
members -1.0310801 -0.6414332 0.17777531 0.70897317 0.09876993 -0.4124992 1.0089049 0.19263023 -0.11600542 0.03690791 -0.4822979 0.56180215 0.16384093 -0.6535562 0.1452752
first -0.10150997 -0.7321711 0.5688417 -0.08862139 -0.069435544 -0.6209757 0.63152784 0.44357592 -0.35317734 0.15259105 0.16581078 -0.04224995 0.20506029 -0.43329906 0.19102131
van 0.0763483 0.26251394 0.7523232 -0.9622391 -0.5129174 0.11511732 0.54762316 1.0099362 -1.1455903 -0.641833 -1.1982596 -0.03560751 -0.3957885 -1.2371948 -0.3733657
today 0.58798397 -0.9120794 0.50290745 0.25423634 0.09243474 0.041298214 0.84373146 0.36718377 -0.7009161 -0.27785245 0.6399591 0.79997575 0.02818017 -0.21414906 0.277802
name -0.73542935 -0.49635684 0.21104683 -0.18362072 -0.2603922 -0.18475728 0.5412543 0.51104414 -0.8616418 -1.229678 0.31229442 0.14214256 0.34823337 -0.6141273 0.35825
things 0.036263235 -0.24526908 0.5764161 0.5479612 -0.28782457 0.36766776 0.7965669 0.31060418 -0.8757952 0.336147 0.35249683 0.39525867 0.1522372 -0.13965005 -0.006662607
story 0.4754901 -1.0464435 0.27401602 -0.07238231 0.51099014 -0.11446093 0.7112143 0.61767024 -1.196551 0.3142564 0.8758015 0.9057852 -0.21072213 -0.30806008 0.22337577
school -0.47480547 -0.24660876 0.9090814 0.52901506 -0.41737273 0.3227765 0.56431395 0.7388567 0.63698393 0.16294819 1.0004424 -0.25956446 0.2903509 -1.1186285 0.43981668
work -0.14608154 -0.042070996 0.7297382 0.4026159 -0.20799956 0.16475572 0.7724178 0.74906063 -0.024864554 0.124441326 0.4701428 -0.12385323 -0.039785527 -0.3010888 0.6217298
family -0.5436384 -0.7115105 -0.09183262 0.30266842 0.027963312 -0.10946241 0.7633384 0.6254934 -0.37281945 0.0047370573 1.15847 0.59185106 -0.058182918 -0.45934433 0.37883407
made -0.060382564 0.011685556 0.62247705 0.018952 0.008562436 -0.569577 0.9964983 -0.08596178 -0.7428238 0.080314994 -0.032010503 0.0875998 0.10273789 -0.16652481 0.15748352
help -0.34626752 0.34264007 0.30642694 -0.17186539 0.35157835 0.39092368 1.071746 0.77994096 -0.5647409 -0.07280068 0.86592644 0.6840909 -0.22574963 -0.08576386 0.63251287
over -0.0044651683 -0.12553614 0.52660686 -0.54744434 0.48359323 -0.7271309 0.98477894 0.6372321 -0.3979303 0.1960337 0.17949529 0.22911376 0.2340558 -0.042390954 -0.4417033
away -0.65072685 -0.19871157 0.47393698 -0.23840407 -0.81264585 -0.3129187 0.82339877 1.0185528 0.12104704 0.38060054 0.5431009 0.3187268 -0.22757559 -0.5024582 -0.3266092
more -0.0736752 -0.53829587 0.50379854 0.5649109 0.2559937 0.22219929 0.5716491 0.5483414 -0.9343151 0.6198582 0.26702702 0.066438414 0.18266152 -0.24106988 0.3676631
make -0.05515595 0.13214435 0.8385316 0.0047436627 0.15902023 -0.014144562 1.2021011 0.025765376 -0.66219187 0.24457566 0.20837481 0.35029885 0.23623316 0.020232981 0.596346
through 0.1475496 -0.24825194 0.8233371 -0.06817063 0.2600745 -0.9907281 0.6477917 0.74266934 -0.2658401 0.17227952 0.3318221 0.5270226 0.27392894 0.25075904 -0.18541117
south 0.13344875 0.15239981 0.44185856 1.3779583 -0.15295596 -1.0500243 0.93805516 0.44069108 0.23760225 -0.5170884 -0.2438687 0.6014994 0.07972344 -0.30480024 0.27048317
evidence 0.06562239 -0.36685386 0.17583339 -0.36282495 0.5953556 -0.34124833 0.86741525 -0.043533165 -1.4232507 0.06030275 0.0029414252 0.37837783 -0.11559453 -0.6321448 0.26843974
actually -0.22927041 -0.33394477 0.35630792 0.2644424 -0.44227123 -0.134677 0.6297362 0.2879303 -0.61174655 0.16864575 0.057309452 0.24848422 -0.032222826 -0.38756943 0.08106166
put 0.03783846 0.23430246 0.58165145 -0.6017654 0.01751703 -0.3109848 1.0040426 0.7236789 -0.65863365 0.11594 -0.0522941 0.07495933 0.5223136 0.06851046 -0.3310513
court 0.41512606 -0.19786015 0.40087035 -0.21043321 -0.74412984 -0.009984907 1.5074553 -0.75340873 -0.7346668 -0.119572625 0.10644816 -0.4333216 -0.22957052 -1.2702651 0.0020441478
mrs 0.11391336 -1.3586812 -0.025697393 -0.7219762 0.6416963 0.040210035 0.770048 1.1315031 -0.5238642 -0.2604095 0.5603794 0.81629866 -0.117318876 -0.7599444 0.63561904
died -0.39770332 -0.92381436 -0.22959875 0.29207593 -0.6294991 -0.68732965 0.732489 0.6710393 -0.42919168 -0.08510617 1.081459 -0.06251926 -0.29103106 -0.6521762 -0.031944342
working -0.77022207 -0.30718237 0.6356557 0.6269013 -0.24426627 0.33495498 0.5021461 0.9322973 -0.049533714 -0.62209153 0.5697564 -0.29624707 0.19819488 -0.6332089 0.666576
remember -0.27541882 -0.6866086 0.80313206 0.1111986 -0.4687286 -0.044450525 0.47257936 0.45600045 -1.011514 -0.43417552 0.11771315 -0.41999623 0.2179395 -0.41794896 0.39402747
whether -0.7161204 -0.06480669 0.30370867 -0.049820498 -0.41221553 -0.1577447 0.62763387 0.27638644 -0.9765703 0.036429256 0.015216366 0.15633108 0.045705777 -0.38788083 0.54002273
something -0.081675865 -0.047138777 0.5542002 -0.013698832 -0.34929523 0.04595366 0.40035486 0.58525485 -0.9399789 0.22463217 0.30491105 0.3523493 0.09098936 -0.18247746 0.31213868
th 0.04039353 -1.0012285 0.8765152 -0.11358559 -0.30646873 -0.9799839 0.725447 0.100550786 0.062610015 0.49877962 0.25777906 -0.49128938 -0.6358306 -1.4653203 0.33677408
child -0.36033475 -0.2527015 0.116282895 -0.034006078 -0.8762414 -0.2200953 0.74046344 0.9395477 -0.20554063 -0.21090356 1.3456436 0.1144371 0.19673198 -0.4007067 0.1978255
husband -0.45406985 -0.73150504 0.020041268 -0.16746563 -0.7436207 -0.27806965 0.802948 0.6879092 -0.26322475 -0.014127659 0.9396836 0.2751064 -0.031238025 -0.5406197 0.29623413
question -0.10613952 -0.52684695 0.43383113 -0.17010583 0.17084648 -0.115524516 0.47661582 0.177554 -1.1284268 0.23235595 0.056464337 0.265357 0.55210954 -0.63429224 0.7439183
down -0.2536912 0.15247117 0.9023898 -0.6454039 -0.566943 -0.56254274 0.69908077 0.5712726 -0.111380816 0.2428172 0.28908506 0.45514083 0.22641343 -0.34807473 -0.4941983
may 0.12259802 -0.46056825 0.70778906 -0.18211086 0.38236815 -0.36680374 0.6704215 0.20085901 -0.64672583 0.40738896 0.26752374 0.36886352 -0.05135397 -0.4378684 0.6884956
car -0.97997075 0.028446982 0.69437706 -0.62357056 -0.43285307 0.009282726 0.93961984 1.0701392 -0.37248605 -0.23073447 0.11193138 -0.08662042 -0.48180047 -0.6178439 -0.7971173
political -0.6392057 -0.19724636 0.32032818 1.2888893 -0.27076766 -0.52445227 0.3323142 -0.20218691 -0.41160148 0.6324821 0.070478484 0.6782303 0.6689086 -1.1713234 0.7549462
questions -0.074065804 -0.7470223 0.2798488 -0.5089667 0.8010393 0.5886213 1.0472275 0.40363133 -1.3185163 0.29572633 0.07179612 0.3042246 0.7323225 -0.5567217 0.673996
called -0.5914716 -0.5957583 0.48392954 0.06026698 -0.49182215 -0.16498534 0.9192427 0.46427622 -0.029350664 -0.5917164 -0.2901611 0.021252751 0.07090964 -0.64390266 -0.04055071
arrested -0.1615484 -1.0223532 -0.22763096 0.2539041 -0.9701075 0.02080119 1.2243212 0.30260977 -0.41544485 0.068826936 -0.26533857 -0.41685197 0.03622438 -0.9354885 0.025964437
same -0.22708067 -0.5395029 0.6160686 0.21501538 -0.3076664 -0.36390674 0.56786543 0.36442432 -0.5304153 0.022051156 0.053773534 -0.06474457 0.02129227 -0.40820348 0.048807677
station -0.31142092 -0.4156261 0.5005764 -0.24192984 -0.64709824 0.23971301 1.4480145 0.6424146 -0.36410978 -0.42152622 -0.39978224 -0.50506747 -0.6888903 -0.72573364 -0.46257252
three -0.3431757 -1.0962873 0.43083537 0.25190374 0.004963253 -0.24307752 0.9794125 0.5203422 -0.39274275 0.106917165 0.41446406 -0.82272875 0.74856544 -0.6160585 -0.57554513
find -0.42604348 0.12008223 0.36170623 -0.11521902 -0.39429212 0.050689567 1.1798675 0.3935174 -0.70348436 0.06446869 0.3829135 0.21892741 -0.32969823 -0.05754256 0.20129551
saying -0.23699595 -0.2839274 0.60470235 -0.052962907 -0.7681502 0.09243704 0.51971596 0.24867766 -0.6525027 -0.06483567 -0.013170782 0.56679666 0.3050814 -0.3833412 0.32661176
government 0.108155124 0.50089353 0.40858677 0.9282917 -0.24532327 -0.36821687 1.2963666 -0.15120755 0.19070153 -0.017810227 -0.18574066 0.71295756 0.12581137 -0.4060779 0.5028638
years 0.34484792 -1.0613694 0.39310297 0.82048273 -0.13212354 -0.5329044 0.4680687 0.4333454 -0.41678432 -0.097540654 1.0983104 -0.6848051 0.95924264 -0.9232342 0.12617387
right -0.1610875 0.093636595 0.790682 -0.20437919 0.1229007 -0.6668341 0.25414792 0.5968539 -0.373606 0.05507181 0.6075602 0.37715197 0.2754623 -0.28124315 0.08258087
het 1.369494 1.08874 0.026505675 -0.21075615 0.18086821 -0.005910465 0.27985755 3.3017318 -1.1225221 -0.7271195 -0.36849007 0.9525519 0.49070224 -4.1193347 -0.40286678
death -0.2695616 -0.52204746 -0.56469357 0.20474298 -0.42583486 -0.8301332 0.8439714 0.12770186 -0.89842147 -0.0033188018 1.1878451 0.026931733 -0.41705626 -0.77520615 0.27438134
security -0.18872261 0.18316633 0.42819923 0.94040763 -0.08724932 -0.7752269 1.1901127 0.35766262 -0.36799204 -0.32568237 -1.0743165 -0.07374911 -0.027319998 -0.2664103 -0.025612148
able -0.21096514 0.26638222 0.40922993 0.2188495 0.10333659 0.16054429 1.0304091 0.5306198 -0.42007917 0.3463987 0.42251968 0.4480314 0.017864484 0.024001317 0.5329014
against 0.1457035 0.2139136 -0.07359748 0.5414343 -0.8625435 -0.51822746 0.96411145 -0.34828725 -0.25629783 0.3791266 -0.53111005 0.74552745 0.74899495 -0.9061432 -0.12325744
man -0.5222415 -0.20907198 0.46027422 0.0541032 -0.81939954 -0.1863375 0.21983732 0.8442027 -0.50315225 -0.810739 -0.084701136 0.33828172 0.21933796 -0.52547705 -0.16866006
started -0.31884357 -0.5979346 0.5677846 0.13027833 -0.93199027 -0.1386202 0.44196412 0.8569376 -0.0928124 0.6648027 -0.068845235 0.17120068 0.2791848 -0.5246483 -0.3325223
already -0.31742245 -0.45830694 0.43299663 0.0036208008 -0.3442444 -0.6109581 0.78799224 0.45946097 -0.49174815 -0.0411402 0.34464064 0.034185585 -0.18435334 -0.24756059 0.024949608
another -0.60880005 -0.30967215 0.7600413 -0.14356388 -0.31561485 -0.36766207 0.6247708 0.5302347 -0.39309964 -0.34663525 0.15687883 0.09410018 0.13313323 -0.31368783 -0.1339245
hear 0.2646764 -0.865706 0.8284791 -0.54935956 -0.21081612 0.14403975 0.37077728 0.75905854 -1.1527576 0.25349656 0.23154724 0.6846342 0.267022 -0.1656303 0.1566411
involved -0.70506555 -0.53174883 -0.09073506 0.9655987 -0.19760823 -0.22591037 0.52925885 0.23662521 -0.7648083 0.22983852 -0.3177566 0.21943559 -0.12199155 -0.83223003 0.3742904
such -0.1350052 0.25338176 0.17340763 0.80616885 -0.020611092 -0.45972514 0.7193245 0.1395949 -0.7652197 0.4915134 -0.03502928 0.27587968 0.07591543 -0.27586642 0.18545756
member -1.2774678 -0.6329708 0.31670687 0.54064494 0.01947802 -0.49412277 0.6467608 0.020622605 -0.04743423 -0.54848236 0.014344692 0.7584703 0.29516357 -1.1645858 0.9125614
information -0.5764802 -0.027580366 0.04607992 0.40630484 0.50120676 -0.046716563 1.1075376 0.35550264 -1.0046117 0.16986354 -0.28906822 -0.15344277 -0.3566086 -0.38025853 0.5304409
found -0.5602402 -0.030684186 0.26374128 -0.25076193 -0.6339778 -0.6191216 1.093227 0.17129034 -0.5041024 -0.2879099 0.38820285 -0.34439614 -0.0923207 -0.5867832 -0.61981255
mother -0.31480122 -0.42852 0.039971847 -0.19783828 -0.5648349 -0.15547448 0.84109896 0.9404044 -0.098023064 -0.27958953 1.37658 0.25328726 -0.0098030595 -0.5135337 0.25454715
truth 0.47739026 0.075215004 0.54465115 -0.12451663 -0.093192816 -0.12252891 1.0652512 -0.16913462 -0.96430546 -0.14094561 0.53636295 0.9769564 -0.15316294 -0.2899553 0.3685223
given -0.0118541485 -0.08381113 0.18488517 0.19619004 0.27071744 -0.35651517 1.1863093 0.17311221 -0.7681697 0.14815868 -0.030399332 -0.25661486 0.2941778 -0.14441907 0.43540624
morning 0.48995078 -1.151418 1.1597548 -0.48005942 -0.10935894 -0.3871868 0.9126486 0.95853984 0.016717616 0.24744844 0.04041389 -0.14859113 -0.32375994 -0.3884618 0.106362656
around -0.4594373 -0.44177598 0.83851796 0.14833733 -0.47286537 -0.17095217 0.5515246 0.85813755 -0.16009942 0.2423298 0.15691826 0.08736047 -0.04441485 -0.33907756 -0.55743414
area -0.72635597 -0.4236385 0.7774583 0.8751508 0.037955046 0.050418325 0.46247557 0.5169217 -0.18570794 0.204709 -0.10735785 0.42040786 -0.573778 -0.75690097 -0.4534594
brother -0.67403656 -0.7968856 -0.12522158 -0.21045204 -0.45835015 -0.55391705 0.76506215 0.76484615 -0.30394724 -0.17073965 0.8945026 0.25324565 -0.04847877 -0.5295849 0.2970523
gave -0.33715662 0.08214337 0.14107168 -0.32635656 -0.02763556 -0.23281358 1.3163168 0.39244106 -0.61373377 -0.2572252 -0.049789462 -0.45927072 0.28028852 -0.21134238 0.30449194
knew -0.63373387 -0.27292466 0.076697126 0.29700404 -0.8973121 -0.09965885 0.76745486 0.62129736 -0.46715388 -0.2242729 -0.19746311 0.3502049 -0.12267687 -0.36299667 0.3237314
thats -0.6725075 -0.28575996 0.61491066 -0.018315665 -0.45481572 -0.36262968 0.24900492 0.60443336 -0.5741703 -0.11911706 0.38941988 -0.082252 0.017933847 -0.5518544 0.3661679
incident -0.22253343 -0.8730377 0.22780392 0.19378069 -0.18301187 -0.37518644 0.4343447 0.2365003 -1.1328473 0.49136072 0.3631677 -0.14488393 -0.8376044 -0.96721077 0.2038316
thing -0.13677977 -0.21932492 0.67737937 0.26488835 -0.46442842 -0.014911437 0.41651928 0.49004227 -0.94385827 0.23757584 0.33137155 0.3100661 -0.07635139 -0.21474777 0.15749347
really -0.032970272 -0.11308941 0.43848795 0.4061916 -0.472175 8.974577e-05 0.33540183 0.6602494 -0.9370714 0.10933762 0.5398461 0.48376033 0.052804444 -0.06318496 0.3895485
fact 0.0093072 -0.2000869 0.23460701 0.51571417 -0.19134817 -0.49322495 0.5787757 0.13549216 -0.8162431 0.066703916 -0.08277798 0.2553022 -0.0788968 -0.41417432 0.2946331
part -0.23009405 -0.31937823 0.15643995 0.53925735 0.2902026 -0.6826452 0.12877983 0.07797169 -0.33403268 0.28617764 -0.26580104 0.31085533 0.053019606 -0.74359506 0.073408976
community -0.33700317 -0.30118364 0.50221634 1.1815144 -0.11230794 0.47769314 0.77770615 0.06852789 -0.036616456 0.059031356 0.083170876 1.0453155 -0.083466634 -0.74604446 0.11704981
next -0.24468149 -0.51477545 1.0336812 -0.8110174 -0.018247351 -0.46807113 0.8067155 0.6803827 -0.040708564 -0.25252938 0.44554615 0.09907526 0.073471524 -0.48459843 -0.300853
correct -0.58780396 -0.590192 0.42480826 -0.007983402 -0.100906685 -0.5327926 0.06671678 0.2572671 -0.9895328 -0.15709707 0.08913246 -0.32765543 -0.09519254 -1.235849 0.7631187
old -0.2949263 -0.9479544 0.4484997 0.39431736 -0.30783468 -0.17727628 0.23528762 0.7644888 -0.3657156 -0.24241365 1.2670076 -0.23122661 0.9671264 -0.8371192 0.030012703
country 0.08815985 -0.19349281 0.32017142 1.0296706 0.025723994 -0.673015 1.082684 0.42812282 0.101384535 0.32770497 0.19097708 0.76287055 0.048970804 0.03765469 0.21511503
certain -0.8017939 -0.16818646 0.58771294 0.2940931 -0.18355598 -0.32238382 0.8248006 0.19140083 -0.47165406 -0.1481232 -0.22322145 -0.07967353 0.19358018 -0.36068287 -0.10644938
together -0.5068243 -0.6646645 0.3298952 0.11675405 -0.015190558 -0.06494685 1.0653006 0.64836645 0.17449096 -0.21561752 0.18680172 0.39818949 0.15143563 -0.3490156 -0.05007207
arrived -0.36561278 -0.70938706 0.67331433 -0.4281043 -0.5824522 -0.11195015 1.1321568 1.0846268 0.00036642345 -0.29161003 -0.1289402 -0.34969246 -0.60198915 -0.6214852 -0.32864642
cannot -0.18613228 0.2252561 0.5864915 0.14765549 -0.35663608 -0.121759996 0.5368209 0.48253992 -0.89003915 0.077143535 0.25313073 -0.009927983 0.29196018 -0.093893364 0.6585795
understand -0.050886456 -0.5054304 0.5829787 0.1597906 -0.22766611 0.14934716 0.30610022 0.44267482 -1.1470329 0.2006385 0.112525694 0.6317518 0.27389905 -0.26970533 0.6142022
tried -0.43482736 0.45264462 0.28791898 -0.27938735 -0.5982983 -0.2673085 1.1055007 0.81998104 -0.05156603 0.3151618 0.234774 0.27163443 0.041190434 -0.06465521 0.01073626
white -0.41927677 -0.056018554 0.6890863 0.46198145 -0.7361236 -0.11652968 0.6862576 0.5983097 -0.3030573 -0.9039745 -0.36528143 0.3526761 0.5060869 -0.35387796 -0.7445318
while -0.090589516 -0.57609326 0.56898725 -0.050718598 -0.5595445 -0.39957204 0.8146181 0.8280573 -0.15485579 0.12386585 0.1507942 -0.1194227 0.11142234 -0.18714651 -0.19623648
state 0.2620987 0.09352896 0.19366734 0.7070001 -0.1156282 -1.0299289 1.0498054 -0.12230009 -0.2798113 -0.090308435 -0.0961344 -0.03210036 0.30902228 -0.49392512 0.714195
try -0.19543305 0.356805 0.4077082 -0.0654489 0.37452805 0.3003771 1.2134488 0.51276284 -0.6386062 0.5671632 0.51505786 0.66727835 -0.22945829 0.0013243131 0.5512788
doing -0.39988124 -0.30138183 0.6748444 0.48104978 -0.45662627 0.15243457 0.38855878 0.6010609 -0.14565931 0.06631875 0.54159576 -0.018484745 0.6645958 -0.51717645 0.5566915
look -0.34812942 0.12675959 0.6661299 -0.0579229 -0.16907495 -0.2138934 0.93344915 0.46540028 -0.3698031 0.06451117 0.6046005 0.26363802 -0.13932575 -0.06879933 0.075094566
under -0.0539365 -0.026748851 0.23540981 0.27878934 -0.11676942 -1.0202739 0.94791454 0.43479916 -0.21882 0.2660298 -0.4790591 -0.23549438 0.52711797 -0.20758261 0.11195639
own -0.41088873 -0.0009827785 0.15866117 0.32877174 0.23090203 -0.4229357 0.80351573 0.3346073 -0.49208292 0.26669756 0.3884024 0.50742525 0.55303824 -0.1544137 0.17229527
father -0.35999855 -0.4528675 0.051147178 -0.006640447 -0.7107069 -0.3628727 0.731182 0.788078 -0.11112364 -0.37773442 1.0029905 0.27768627 -0.032295458 -0.5020105 0.2989821
policemen -0.427576 -0.47051692 0.42618287 0.2729852 -0.7807309 -0.0066449065 1.0560032 0.3444602 -0.5609172 -0.38941133 -0.44181892 0.095128566 0.34746206 -0.36714402 -0.7287772
myself -0.26384762 0.061961826 0.21139406 -0.14398764 -0.49646604 -0.27393857 0.6487365 0.8320856 -0.19090588 0.021463042 0.02487376 0.17789392 0.16350767 -0.27479136 0.26350027
nothing -0.09936232 0.13612396 0.4958837 0.067746855 -0.8993897 0.19760136 0.6567084 0.1739274 -0.8530159 0.10013214 0.31484833 0.1457496 -0.17830922 -0.51117593 0.34042788
hand -0.4362561 0.16043746 0.27116212 -0.896441 0.8054306 -0.5213904 0.59707385 0.9212322 -0.7537813 0.37181076 0.36112592 0.46830928 0.26597834 -0.3701394 0.013602336
policeman -0.53977174 -0.414867 0.3389587 -0.03664808 -1.010435 -0.30489743 0.70557994 0.52164 -0.6730925 -0.81110185 -0.27708194 0.14116463 0.24364859 -0.4798411 -0.30778757
last 0.119243085 -0.8770238 0.93184793 -0.21526784 -0.16176227 -0.54864764 0.5392275 0.31372434 -0.5020456 -0.120772384 0.6407705 -0.30024245 0.10097374 -0.6343395 0.44425046
ek 1.7236707 1.1585164 0.35105944 -0.13258737 0.072288275 -0.009636626 0.06667538 3.1782928 -0.985173 -1.0007589 -0.10733664 0.96869755 0.906368 -4.036388 0.16688742
long 0.4687137 -0.81293964 0.7463796 0.26748666 -0.32699156 -0.14505246 0.69527215 0.8722621 -0.6490528 0.25033846 0.28122947 -0.39311206 0.10250441 -0.05826772 0.16709328
night 0.1513251 -0.96355283 0.604199 0.0073960307 -0.7879638 -0.17900458 0.8529119 1.0447896 0.09598584 0.6641461 0.043885328 -0.15650198 -0.14509006 -0.5008685 -0.27849638
matter -0.18772052 -0.065276645 0.29799038 -0.007040112 -0.10513164 -0.14246754 1.0800502 -0.17538849 -0.9561468 0.02804127 -0.005463418 0.08639743 -0.6874929 -0.67840564 0.55486673
quite 0.092276864 -0.551186 0.8632442 0.7034469 -0.20382825 -0.081171915 0.273462 0.74099725 -0.8450608 0.16264965 0.09866467 -0.108271524 0.061321996 -0.102775835 0.17677628
group -0.9616511 -0.6845831 0.67867607 0.37067086 -0.27326655 -0.21779448 0.6133678 0.39724037 -0.005673047 0.3281125 -0.41321653 0.55145484 0.38528562 -0.7282122 -0.38073263
between -0.5455438 -0.6218959 0.97746766 0.79605055 -0.08291791 -0.37795666 0.18453681 0.2212064 -0.25197378 0.45313752 -0.43643388 0.46449533 0.103194684 -0.8673436 -0.06909036
meeting -0.5723364 -0.46747732 1.2057216 -0.08485518 -0.21584755 -0.095556416 0.8613166 -0.013531229 0.2708693 0.32719374 -0.4626778 0.17072614 -0.46060932 -1.286112 0.6086683
nie 1.6010709 1.2382095 0.19361152 0.087518625 -0.13762581 0.17450364 -0.05662249 2.919137 -1.2318523 -0.7582714 -0.04323527 1.2440876 0.97369754 -3.9638276 0.20877567
until 0.4239031 -0.3652053 0.7203425 -0.03657295 -0.6963335 -0.35519525 1.0935867 0.6387812 0.18489432 0.327954 0.357798 -0.34499794 -0.014939341 -0.34218743 0.18324862
done 0.001710545 0.2819472 0.2494017 0.35431448 -0.4288044 -0.13691674 0.9031218 0.13224572 -0.9253429 0.003861487 0.18383215 0.35590485 -0.27395606 -0.17259733 0.3257877
im -0.43309402 -0.17120214 0.83421165 -0.05039432 -0.25489044 -0.048848778 0.22935352 0.68939316 -0.64537156 -0.275306 0.63239795 0.14914715 0.34610707 -0.31151104 0.95666194
stage -0.23128952 -0.1949303 0.5350613 0.039457805 -0.18990766 -0.36304364 0.4465444 0.50133973 -0.68742144 0.19863546 -0.2231012 -0.031293854 -0.13588543 -0.42219192 0.39930525
whole 0.17830478 -0.22084619 0.7196108 0.4601759 -0.48781824 -0.621163 0.6187925 0.34218228 -0.38266075 0.29526058 0.35675377 0.31845146 -0.25750747 -0.14839806 0.08726535
trying -0.40023395 0.21383707 0.5492281 -0.07314042 -0.33146647 0.0058434573 0.8170361 0.57862294 -0.32421482 0.49142015 0.2102893 0.6903086 0.057870302 -0.06369124 0.12656897
talk 0.1162834 -0.57597667 0.26971373 -0.056759976 -0.35500154 0.36527643 0.83411056 0.6280472 -0.52584904 0.15898271 0.2010877 0.6056042 0.14070717 -0.24017811 0.5756546
organisation -0.98562145 -0.2977255 0.33159995 1.0533979 -0.30874106 -0.11422641 0.589358 0.028486224 0.102152854 0.2365793 -0.0036380137 0.63962287 0.7048828 -1.2103963 0.86917734
money -0.66234434 0.7939483 0.25248718 0.14270635 0.008083376 0.8491214 1.3791493 0.49502227 -0.34387517 -0.1676835 0.6325431 -0.5540388 0.27075705 -0.69755036 0.45183754
later -0.12463273 -0.27032623 0.504705 0.003697761 -0.32553595 -0.2644975 0.4904342 0.6325789 -0.45507854 0.26823395 -0.21052082 -0.55562073 -0.35495257 -0.79484993 0.1731731
lot 0.015591197 -0.30158287 0.64755356 0.7983878 -0.28717014 0.16920635 0.56626433 0.63823617 -0.65784955 0.14553282 0.37323865 0.20491228 0.0030078548 -0.059491567 -0.33203888
african -0.12552254 0.09231684 0.51876503 1.3564402 -0.2837634 -1.1766481 1.0027374 0.24639711 0.18671475 -0.64698315 -0.59467584 0.45759812 0.24683496 -0.46105778 0.33163333
further -0.26908034 0.04331645 0.3541389 -0.12646142 0.51522934 -0.35812163 0.9138439 0.25302333 -0.72061914 0.5861598 0.124911144 -0.049668986 -0.05229666 -0.44433314 0.7849527
looking -0.66508687 -0.4653004 0.4430647 -0.06559174 -0.53492993 0.0121936025 0.9317983 0.74829245 -0.30829373 -0.122062735 0.3558736 0.25027826 0.1636486 -0.1750505 -0.29167408
maybe -0.33958519 -0.20989808 0.5237289 0.11107401 -0.14077921 0.17439486 0.7476279 0.57300174 -0.7107939 0.18330099 0.4665412 0.35342696 0.17399701 -0.0543146 0.65463483
doctor 0.55559975 0.45010516 0.1533035 0.07564429 -0.5360072 0.042402513 1.2627255 1.0516812 -0.752486 -0.775025 0.5652809 -0.78804064 -0.2930215 -0.11399662 0.4440111
leave -0.10811435 -0.16580136 0.7534303 -0.25379092 -0.27915388 0.09934623 1.2013994 0.7010401 0.17766051 0.3706666 0.17666914 0.12183466 0.39967608 -0.11636155 0.45955405
order -0.070250265 0.5457086 0.23108737 -0.16082631 0.2723417 -0.4704822 1.2853675 -0.03718068 -0.27683192 0.64544535 -0.3265917 0.3412191 0.058671076 -0.5055421 0.4858938
others -0.32340458 -0.5851614 0.22398317 0.2440381 -0.2369797 -0.23662013 0.8553292 0.43074423 -0.23105371 -0.11538797 -0.06955167 0.22402194 0.26413402 -0.36195534 -0.34537426
happening -0.33214697 -0.63636583 0.7609461 0.18261257 -0.95639664 0.15211563 0.4621711 0.39461964 -0.6860556 0.36198908 0.11830205 0.49856204 -0.32022715 -0.5389809 -0.04131529
talking -0.087157026 -0.9612533 0.35589832 0.03844684 -0.45197836 0.23841932 0.6419697 0.4020128 -0.6964556 -0.28700694 0.091171145 0.48940086 0.22098954 -0.5113064 0.044718843
side -0.49367893 -0.010088076 1.1537037 -0.20930085 0.03170334 -0.9630836 0.26458755 0.28607187 -0.3330222 -0.07526149 0.60059893 0.65232164 0.3386133 -0.45081565 -0.53167605
stand 0.57518065 -0.5961169 0.28294334 -1.0858399 0.4408948 -0.23050275 1.0526402 0.84248686 -0.35309067 0.3929514 0.33086008 0.9749932 0.68696696 -0.33216146 0.27534148
mentioned -0.5802315 -0.9319884 0.13168791 0.23588473 0.21562262 -0.23791972 0.65001214 0.2565294 -1.1502812 -0.3161209 -0.08919482 -0.0011733462 0.10517735 -0.56016594 0.05146482
outside -0.55154836 -0.1947131 0.87186635 -0.1376369 -0.5472653 -0.27816948 0.8751643 0.87509125 0.058203958 0.29990187 -0.09452486 0.31537446 0.29943502 -0.16368763 -0.6100733
feel 0.67012864 0.020377109 0.34186608 0.2975855 -0.40992075 -0.06479884 0.47067675 0.9456028 -1.0047281 0.3406135 0.782995 0.6723762 0.08876387 0.15583594 0.48991045
sure -0.21510966 -0.34008595 1.0479128 0.09887812 -0.19963148 0.099858046 0.39640942 0.48716676 -0.8809271 -0.21872023 0.25198355 0.069640175 0.12451803 -0.23453301 0.6670872
black -0.19062959 -0.044855636 0.49855164 0.99650156 -0.4181217 -0.32524762 0.6227968 0.42380935 -0.1654576 -0.6518193 -0.33899942 0.53661984 0.84379137 -0.31481332 -0.61873454
situation 0.11607525 -0.10163634 0.58838105 0.8702389 -0.28133097 -0.10254062 0.2761056 0.49638197 -0.62523437 0.64679605 -0.0015867352 0.44879586 -0.60519636 -0.44951844 0.33407605
thought -0.31800994 -0.04837311 0.5320583 0.013953805 -0.86875993 -0.14144365 0.5621761 0.78533715 -0.43852362 0.25818184 0.08206839 0.32032782 0.011378409 -0.1331568 0.14624567
report -0.20263179 -0.123230845 0.56247175 -0.07911155 0.004129457 -0.44736838 1.3009979 -0.014612085 -0.6819556 -0.19651654 0.11328173 -0.3743193 -0.6277561 -0.38148564 0.3784556
injured -0.34337187 -0.2779635 -0.28361437 0.21179444 -0.5852637 -0.5330096 0.6062648 1.0785612 -0.8301758 0.29339764 0.72154015 -0.23265031 -0.5859468 -0.44588566 -0.385576
hearing 0.88036275 -0.373705 1.2940632 0.31421387 0.18822886 0.2302244 0.91274196 -0.2765944 -0.8658435 -0.56904805 0.40650982 0.35571423 -0.9524529 -0.8393432 -0.21632002
ms 0.17504427 -0.78144133 0.20882788 -1.196389 0.8558863 -0.22242045 0.57616913 0.7231977 -1.3563061 -0.22322997 0.15511653 0.41408545 -0.20650217 -0.9668955 0.36723408
door -0.12568648 -0.12643926 0.9886572 -1.1857628 -1.1245492 -0.5792999 0.88905483 0.9081267 -0.024251873 0.074100345 0.3058679 0.55814886 0.6729412 -0.6487381 -0.87369525
couldnt -0.2978774 0.20631751 0.67020154 -0.10492896 -0.91545415 -0.116909504 0.90974003 1.0211192 -0.21552631 0.36171007 0.38255626 0.057236854 0.16720967 0.055879723 0.1704477
committee -0.5533809 -0.070334755 0.95577854 0.22271325 1.1400504 -0.36995876 1.0958982 -0.6337477 -0.30097598 -0.2423647 0.26205972 0.5885038 -0.08103317 -1.3223616 0.6139803
office -0.34857962 0.19797634 0.93464804 -0.1430605 -0.29003203 -0.26554942 1.3911266 0.26346734 -0.098054126 -0.7829541 -0.54494065 -0.27471042 -0.15881877 -0.44761467 0.033662006
funeral -0.08215381 -0.47643915 0.24369232 0.048207533 -0.6821428 0.07639076 1.5622387 0.21438347 0.4507166 0.5749769 0.8153072 0.29939908 -0.70653063 -0.88353723 0.019994028
body -0.048560724 0.55285066 0.013006678 -0.16145852 -0.6196027 -0.99504805 1.0379384 0.7252943 -0.47472465 -0.0888518 0.85101616 -0.15397866 -0.21738823 -0.17371705 -0.42224535
africa 0.42381096 0.16730966 0.51834786 1.2734983 -0.16382375 -0.92845136 0.9441886 0.43642706 0.27862495 -0.31828398 0.12601529 0.6512027 0.043867145 -0.17621171 0.26169676
shooting -0.5976219 -0.56538546 0.40575114 -0.26447284 -0.78786004 -0.3219318 0.40273356 0.5561851 -0.8608506 0.7760086 0.094795495 0.2898883 -0.47228605 -0.89908147 -0.7544745
inside -0.53304905 0.06479867 0.45231408 -0.32932925 -0.5958424 -0.31695408 1.0122013 1.0171151 -0.08060006 0.23935966 0.20408899 0.20888151 0.24412717 -0.22287643 -0.83018166
having 0.02444237 -0.2635073 0.26238507 0.3053575 -0.06907517 -0.32815337 0.78644884 0.41945103 -0.6089736 0.13775258 0.34411663 0.20358412 0.13375016 -0.06445776 0.020647343
call -0.24831662 -0.60523415 0.4671232 -0.50448954 0.0012078042 -0.000631392 1.1847671 0.6076652 -0.09161361 -0.45409772 -0.013243969 0.32997537 0.09114813 -0.30999625 0.29866377
wife -0.4035503 -0.53322154 0.15861973 -0.116758436 -0.41892815 -0.2803867 0.7631902 1.0469067 -0.1781732 -0.13198347 1.080006 -0.026138626 0.114016995 -0.3455257 0.30313122
days 0.62344456 -0.8741933 0.532478 0.4724341 -0.2071761 -0.18319464 1.1723454 0.5014766 -0.3880039 0.35904837 0.22394805 -0.9119085 0.2400605 -0.40496445 -0.16987546
attack -0.8264894 -0.25838566 -0.09062965 0.29633898 -0.2840875 -0.2826744 0.6149272 0.4728004 -0.38070416 1.1276553 -0.13648915 0.39360768 -0.6276002 -0.9395677 0.012344665
end 0.2878172 -0.111970395 1.2337155 0.10687534 -0.20185086 -0.69603086 0.582811 -0.10779432 -0.17504257 0.13750112 0.6966812 0.047750637 0.195632 -0.6067362 0.078505434
young -0.40257558 -0.9923917 0.40199122 0.858344 -0.3744421 -0.17215605 0.48222136 0.7537813 -0.32284954 -0.47263733 0.67460614 0.453607 0.74745256 -0.2318263 -0.24736704
let 0.17699815 -0.33391446 0.56252384 -0.55383646 -0.19706316 0.11906731 0.9703782 0.5334772 -0.31998545 0.35731986 0.14176767 0.56631434 0.37242374 -0.2119679 0.5297111
comrades -0.6871445 -0.6320904 -0.007985054 0.2792478 -0.47262475 0.009170516 1.1223961 0.56593215 0.045670606 0.28347287 -0.16049491 0.46217757 0.042289916 -0.56419283 -0.24396825
indistinct -0.017500479 -0.28672853 0.6535307 0.06827371 -0.14919528 -0.2801761 0.60490483 0.33687654 -0.28678116 -0.26718318 0.15176901 0.092789434 0.068486765 -0.45394042 0.17672226
met -0.37146524 -0.10461811 0.38285324 -0.12006308 -0.42513543 0.067067795 0.4379651 1.1077093 0.13133985 -0.53410524 -0.3314727 0.08721342 -0.5832781 -1.2253021 0.29171622
decided -0.38869482 0.085368834 0.5171211 -0.065238446 -0.47264597 -0.10116318 0.99419945 0.6985681 0.2949214 0.79108214 -0.12317612 0.18170588 -0.20343398 -0.47208437 0.41897383
number -0.49161 -0.5790036 0.5762204 0.3582696 0.31520218 -0.38961977 0.9996079 -0.045188602 -0.6757792 -0.05498322 -0.08162782 -0.3897935 0.25107715 -0.5365539 -0.35384905
use -0.39940506 0.35054284 0.39409503 0.25611398 0.07706472 0.12958802 0.75372577 0.88816226 -0.30436593 0.5216162 -0.26307234 0.081034355 0.54880345 -0.049930815 0.12752476
names -0.6316074 -0.76913506 0.07928337 0.0372276 0.07819418 0.23370007 1.3208921 0.029986748 -1.280788 -0.77068424 -0.107351005 0.17793424 0.8007146 -0.29082796 -0.13628088
good 0.5434794 -0.8769916 0.6870772 -0.044702742 0.23044364 -0.1464756 0.41060042 1.1260977 -0.3843167 -0.11480645 0.21078205 0.5319444 0.13738346 -0.19704069 0.88968563
mean -0.2400434 -0.15557277 0.4079217 0.45231646 -0.39571446 -0.0711772 0.3386217 0.4098479 -0.830965 0.012635556 0.19556566 0.24354185 0.36847463 -0.29268342 0.56270593
particular -0.35986397 -0.51555717 0.59984076 0.31337693 -0.08762308 -0.48331696 0.55311424 0.042786133 -0.40513426 0.3432155 -0.071360275 0.04688027 -0.1766512 -0.7036763 0.1335148
staying -1.1273779 -0.7813544 0.66609657 0.3538921 -0.48012954 0.583885 0.4809515 1.0322243 0.076911375 -0.45969048 1.0897682 0.120870814 -0.24425194 -1.103579 0.05395953
little -0.2127651 -0.56689155 0.81818336 0.18469682 0.2941866 0.15521362 0.19662814 1.2229618 -0.7760614 0.61942935 0.43145862 0.12689918 0.41854537 -0.10166073 0.32699654
witness 0.4734487 -0.85576755 0.45166594 -0.75396603 0.30766276 -0.45450953 0.81342906 0.19905046 -0.8561912 -0.1688012 0.14732495 0.55615205 0.2949162 -0.6178513 0.30589348
life 0.27417088 0.014820641 -0.013904637 0.87463737 -0.26165086 -0.3016481 0.4271491 0.6449146 -0.4482904 0.43026456 1.0970588 0.5244093 0.044437796 -0.39237326 0.40782404
ever -0.078955956 -0.21791379 -0.07491262 0.490454 -0.7362104 0.0360388 1.0012368 0.060465466 -0.9766898 0.047113646 0.33938158 -0.08506178 -0.30970347 -0.5269521 0.5402017
force -0.3202454 0.35772446 0.51718783 1.0225766 -0.08847336 -0.89471036 0.956798 0.41344294 -0.21898617 0.02892635 -0.8547215 0.23188512 0.080041245 -0.22907941 0.29052645
following 0.008397523 -0.54301625 0.7525002 -0.32524955 -0.25626865 -0.66589266 1.1432966 0.4647993 0.0062384037 0.34596255 -0.04080286 -0.4140926 -0.2962492 -0.4908755 0.1170029
request -0.036508594 -0.043460734 0.25147715 -0.3704677 0.57965887 0.02411382 1.3501447 -0.035181325 -0.69428426 0.041583497 0.81419367 0.5145916 -0.09735594 -0.53168714 0.83439
chairman -0.18311492 -0.22857487 0.9735757 -0.38175073 0.4803736 -0.7011819 0.22203718 0.17193069 -1.1069602 0.017293569 -0.16654147 0.34765413 0.18837385 -0.81948346 1.0861529
town -0.07765304 -0.13424003 0.9130603 0.36009902 -0.3301506 0.053336255 1.0566993 0.50424117 0.24868023 -0.78697044 0.21824339 -0.1405742 -0.92852837 -0.92471004 -0.16731139
few 0.031374294 -1.0392851 0.6866059 -0.05372557 0.45857257 0.01685616 0.93035626 0.7161926 -0.6322269 0.5054626 0.075035766 -0.44436395 0.51981634 -0.17222518 0.06290903
taking -0.26947236 -0.12341866 0.59569657 0.038906362 -0.071380794 -0.05937575 1.0123264 0.3640066 -0.287634 0.34675416 0.23034126 0.16219239 0.16927908 -0.1887349 -0.19148082
off -0.07039227 0.17013972 1.0026183 -0.5112168 -0.17287661 -0.19794594 0.67759174 1.025071 -0.25065416 0.35801032 -0.16666749 -0.112250894 0.2526669 -0.2083016 -0.39867976
speak 0.21556155 -0.6129325 0.34219578 -0.27659544 -0.22591834 0.14290904 0.81228435 0.74542 -0.6586254 -0.095924996 -0.18179429 0.7403548 0.5175623 -0.08364618 0.8082368
need -0.196781 0.38613585 0.44746435 0.4350052 0.6247997 0.35585037 0.9696792 0.43108526 -0.9037401 0.27923068 0.63004935 0.43376604 0.3146533 -0.024261443 0.42907852
explain -0.31351203 -0.51798695 0.2853303 -0.04686416 -0.3311953 0.12807824 0.71222436 0.4539893 -0.851554 0.4764843 0.13100083 0.31703758 0.054848246 -0.40317446 0.62425935
everything -0.2812142 0.25345725 0.50461304 -0.10148575 -0.32881138 -0.06311802 0.9811095 0.33487812 -0.38327816 0.33357605 0.55913323 0.2661932 0.007116987 -0.19120304 0.014026066
point -0.3761052 -0.043549936 0.879604 0.061617617 -0.082496375 -0.4533084 0.4302684 0.32696885 -0.74771667 0.41682884 -0.15486227 0.28770423 -0.06420293 -0.2653389 0.31075624
head -0.12445915 0.50605166 0.36360437 -0.05392856 -0.5409015 -1.2126291 0.5413568 1.284103 -0.7682974 -0.26029855 -0.20899218 -0.267123 0.02516318 0.08927467 -0.27153322
u 1.7065669 1.2313601 0.8340156 -0.4049134 0.29167983 0.21726757 0.38029546 2.4550955 -0.6160558 -1.0587157 0.028058514 0.97624505 1.0158157 -4.4668136 0.32653862
en 0.9221965 1.1934711 0.558588 -0.59430736 0.42485023 0.0048496723 0.61275905 2.4944944 -0.42101374 -0.89575183 -0.8073628 0.7363436 0.12422792 -3.6935487 -0.2327654
most 0.10562472 -0.46441597 0.41873822 1.1592429 -0.029306613 -0.1944076 0.59599507 0.4904634 -0.5429665 0.06027405 0.16341949 0.27362823 0.07592123 -0.1201913 -0.036764476
present -0.46122313 -0.44285306 0.481767 0.10162503 -0.064580336 -0.31577542 0.72840416 0.17289989 -0.58398587 -0.30377355 -0.12570244 0.026395842 -0.19940099 -0.56493545 0.46775022
welcome 0.96397805 -1.4973624 0.63010514 -0.24276103 0.97396797 0.14699171 1.063952 1.1061447 -0.45280284 -0.5703303 0.14689472 1.2158426 -0.0130278105 -0.45561442 0.587928
struggle -0.027128309 -0.029325804 0.009087534 1.201193 -0.094901666 -0.6816406 0.5634945 0.45361653 0.092449225 0.67555505 0.31162944 0.91531605 0.7144185 -0.5042691 0.2920169
forward 0.47261468 -0.46781918 0.08606348 -0.17109387 0.24486327 0.054563608 1.4063593 0.16977838 -0.6726902 0.034622874 0.37568167 1.338827 0.029268732 -0.15274858 0.19482897
reason -0.30801797 -0.055004295 0.050901037 0.1977259 -0.7752273 -0.10300479 0.64440495 0.15489893 -0.7728145 0.46979296 0.011636447 0.35074815 0.07412089 -0.60353506 0.42109972
since 0.0077408743 -0.56662905 0.3556263 0.5535469 -0.49598363 -0.47219294 0.5949188 0.52919126 -0.31741548 0.095604904 0.72470456 -0.1734078 -0.20853654 -0.38966092 0.49507132
difficult 0.3899368 -0.23922749 0.5818119 0.60168684 -0.2172323 -0.09051752 0.6119744 0.6723564 -0.7964153 0.34992024 0.6221813 0.48658857 0.10759977 0.11220326 0.46118277
prison 0.74617416 -0.53688914 0.17375018 0.56042373 -0.8792016 0.080233954 1.3248576 0.66242576 -0.15184696 -0.22963355 -0.08792789 -0.9460407 0.28670523 -0.6136079 0.10722657
cant -0.32954437 -0.084554784 0.7899902 0.04862723 -0.5316852 0.11151239 0.4850448 0.76250094 -1.0174216 -0.07542428 0.357774 -0.20804276 0.46266305 -0.027019804 0.6783458
men -0.6335131 -0.85363126 0.24160771 0.5078166 -0.48338905 -0.28652275 0.8420724 0.54588777 -0.42848885 -0.191808 -0.14995447 0.26926526 0.609894 -0.3416807 -0.8939896
dr 0.5208777 0.036664233 0.48050183 -0.43892887 0.83928 -0.5743095 1.1343012 0.9723531 -0.4623587 -1.2261932 0.23546791 0.052904993 -0.42334822 -0.25608078 0.7843138
sorry 0.093392365 -0.77115124 0.9196948 -0.3720927 -0.00944164 -0.15890534 0.19511083 0.6216591 -0.84147537 -0.062497444 0.22758828 0.3698758 0.3826772 -0.45753074 1.0423479
times 0.17821929 -0.43900818 0.50439024 0.7008296 -0.3840539 -0.22733678 0.6624448 0.7224081 -0.5715877 0.2504374 0.16386424 -0.4473249 0.2927311 -0.0768517 -0.09799347
clear -0.17956133 -0.36003068 0.5761009 0.44067103 -0.0416582 -0.45560533 0.314649 0.32067078 -1.0549202 0.31272817 0.02027489 0.3451609 -0.007865342 -0.22705568 0.397305
telling 0.17044128 -0.8050146 0.3633816 -0.11019034 -0.06965265 0.07138947 0.9657452 0.5703882 -0.683628 -0.14155242 0.34810266 0.66476095 -0.035292313 -0.054851044 0.30724925
perhaps -0.037121262 -0.3095293 0.5781258 0.09368091 0.26534492 0.12847772 0.5842591 0.24903853 -1.1035194 0.31456932 0.16250516 0.50770766 0.15135835 -0.34615883 0.6243127
sent -0.30609804 -0.24412315 0.29013306 0.21364725 -0.4395977 -0.26969722 1.2842127 0.44822717 0.009512186 -0.5545478 -0.1603427 -0.47989488 -0.06956229 -0.51424557 0.33619967
asking -0.3460317 -0.40979195 0.4197621 -0.26922983 -0.5626216 0.21741767 0.9611014 0.30877018 -0.69074243 -0.08499735 0.12209202 0.4041536 0.53083855 -0.21022826 0.4035264
kill -0.73497266 0.13033628 -0.53820676 -0.28009415 -1.0185422 0.061044283 0.9292037 0.5817971 -0.53528494 0.33330464 -0.2214969 0.9075727 0.12241096 -0.56685126 0.3290979
four -0.34320664 -1.083193 0.6681458 0.29350558 0.08356215 -0.37744394 0.89151603 0.5479013 -0.35226065 0.18791787 0.4322157 -0.764293 0.7306164 -0.5375868 -0.5734729
received -0.41253895 0.022776099 0.2079757 0.20273247 0.2606096 -0.37579057 1.3085954 0.4466926 -0.5409677 -0.14014673 -0.0056071104 -0.9377214 -0.26072478 -0.47356024 0.8078856
front -0.34640014 -0.29112297 0.95581937 -0.42516786 -0.11784841 -0.86108685 0.76224715 0.4806689 -0.09851906 -0.13605946 0.106172025 0.6916169 0.51406556 -0.13856418 -0.6705663
brought 0.042335648 -0.12588729 0.23229513 0.0887819 -0.3005141 -0.3507394 1.2339518 0.41912943 -0.13912281 -0.31616282 0.24666393 0.013211808 0.19673812 -0.11839121 -0.14988731
violence 0.15309753 -0.28592625 0.3625829 1.306532 -0.36334172 -0.33907932 0.416224 -0.129816 -0.52988327 0.7816714 0.06767918 0.39905933 -0.28111196 -1.0952387 -0.32254028
past 0.35224128 -0.5838563 1.3848883 0.3679278 -0.017794453 -0.37644708 0.5370709 0.20904548 -0.18423046 0.56645423 0.6083995 0.041870378 0.1765496 -0.540891 -0.6761342
cape 0.1357919 -0.21061133 1.1001048 0.7910363 0.082217865 -0.22719258 0.9643569 0.24403714 0.07863843 -1.1208339 0.34413442 -0.260799 -0.96978086 -1.0013806 0.15304713
believe -0.11631849 0.09553276 0.32776362 0.3751563 -0.4140524 -0.52824426 0.5166334 0.17715405 -0.8301984 -0.19463535 0.17249022 0.6068436 0.08662753 -0.23253255 0.36358023
year 0.30964354 -0.7990547 0.86156934 0.5134675 -0.40355816 -0.6334586 0.52652955 0.2722322 0.055718165 0.09795708 0.93636394 -0.8320148 0.33246946 -1.1314299 0.56977785
march 0.10358313 -0.40464815 1.0154608 0.1681128 -0.33065766 -0.5846628 0.707559 -0.00085031195 0.18719351 0.8879305 0.032046676 -0.030801998 -0.68732625 -1.258611 0.25289407
dont 0.20775029 -0.088536985 0.6806213 0.021791881 -0.84001094 0.6495128 0.6485641 0.34836665 -1.073077 -0.40892082 0.25395676 0.29828173 0.365882 -0.2972092 0.40636802
second -0.23863345 -0.61690843 0.8305372 -0.15530032 -0.15894093 -0.9945388 0.41216716 0.28102484 -0.35961023 0.16538072 0.36693984 -0.39496133 0.3836841 -0.68235725 0.19033925
far -0.45629176 0.0062883073 0.77693087 0.35534528 -0.02243684 -0.2314611 0.3277653 0.3403584 -0.79527164 0.019989528 0.28643656 0.09799098 -0.463635 -0.4935065 0.24803156
according -0.6005759 -0.2578037 0.22256294 0.054308336 0.053557556 -0.6170414 0.7576162 -0.031342182 -0.8606561 -0.029601736 -0.020631058 -0.09406992 -0.055657245 -0.6532779 0.3700687
problem -0.27488127 0.13696577 0.695722 0.45066723 -0.32586437 0.22399816 0.4385189 0.80238277 -0.44361538 0.152072 0.4085149 0.05399898 -0.16509764 -0.24000165 0.6153655
within -0.5459999 0.061240856 0.73894906 1.0541192 0.11468601 -0.9515714 0.6023617 0.0991705 -0.247497 0.46518084 -0.057366297 0.053567648 0.2987825 -0.47889307 0.0707961
wasnt -0.4535018 -0.1606363 0.6167983 0.22226276 -0.9194985 -0.27048013 0.52804345 0.6392416 -0.46332055 0.12112456 0.27068445 -0.082894124 -0.07704361 -0.2909911 0.46833962
both -0.09167192 -0.6274978 0.15084864 0.20865655 0.37640166 -0.7844566 0.6537323 0.5142837 -0.5631437 -0.037737202 0.1857449 0.28658268 0.3927889 -0.13257185 -0.07205756
start 0.21069121 -0.976514 0.63960344 -0.42902243 0.31732795 0.10495487 0.4815245 0.56298155 -0.4220708 0.7380495 0.36640525 0.541729 0.23097149 -0.6157559 0.37910447
rights 0.3111223 0.31715927 0.20412213 1.0443059 0.77349555 -0.30810595 1.2874539 -0.74958736 -0.49937624 -0.82564765 0.8658846 1.1279695 0.43360594 -1.2042083 -0.24151659
than -0.054055285 -0.18592471 0.47855803 0.8872922 0.07673636 0.00627301 0.417569 0.5526065 -0.7833572 0.6079173 0.23218577 -0.26883823 0.50645876 -0.305831 0.089463346
de 0.24333933 0.21450819 0.47755057 -0.7651121 -0.4380953 -1.0306093 0.6555919 0.6940427 -1.0057826 -0.37254018 -1.1277915 0.47962672 -1.1374794 -0.9298384 0.38033384
burnt -0.86217976 -0.06529403 0.040866315 -0.2769849 -0.84072393 0.02088747 0.951594 0.28471163 -0.3513249 0.21760103 0.95955455 0.37026227 0.03316743 -1.0761393 -1.0030582
okay 0.14574924 -0.50600296 0.8228282 -0.63549316 -0.039121456 0.3065176 0.4220059 0.9562809 -0.78324574 0.026806166 0.4698655 0.22564986 0.16937011 -0.40419358 0.8572076
released 0.6055585 -0.58378345 0.030901339 -0.013697209 -1.0536985 -0.3271456 1.4854821 0.33664182 0.06764845 0.21811663 0.006356203 -0.7066169 0.21526895 -0.88646007 0.49514905
lost -0.1293879 -0.30495614 -0.055191454 0.7686159 -0.16859911 -0.43537426 0.697583 0.7694612 -0.5541183 -0.010947832 1.4086598 0.2969112 0.26549357 -0.054542184 -0.19667739
dead -0.43902078 -0.3728375 -0.017869614 -0.33972144 -0.9978012 -0.53417206 0.7996853 0.76489365 -0.5936416 -0.40871787 0.731471 0.28759947 -0.35505694 -0.4639586 -0.23747252
kind -0.080836765 0.21898621 0.3199518 0.7952329 -0.08118227 0.24371803 0.43782553 0.487935 -0.93475485 0.21345952 0.27534282 0.23604949 0.07884082 -0.2516067 0.2244397
youth -0.66650325 -0.74017495 0.48587167 0.9363923 -0.53239083 0.053558733 0.67296195 0.20275481 0.45345765 0.29160902 0.057143103 0.9344351 0.26166216 -1.0993334 0.20744425
bit -0.06964209 -0.71031296 0.89403695 0.14275748 0.07290961 0.23319761 0.06487246 1.3726827 -0.95547163 0.8061479 0.26332784 0.13295476 0.19430283 -0.20262162 0.6946839
sir -0.2533337 -0.6741888 0.78300136 -0.046628155 0.064329185 -0.04198922 0.41951194 0.42965925 -0.804663 -0.13453686 0.40931237 0.2760872 0.19049197 -0.44860128 0.96809417
kb 1.745066 -2.3040736 -0.6401864 -1.2512729 0.77225447 -1.9388336 1.3018893 2.3475902 -1.0465063 -0.42534405 -0.53715706 0.17724454 1.813622 -3.914076 -0.13571069
ran -0.9264296 -0.40221372 0.58518356 -0.52133137 -0.8451597 -0.3987042 0.7916472 1.1691426 0.17791077 0.5093729 0.5040029 0.5252121 -0.14688984 -0.710829 -0.82340676
always 0.07254824 -0.0469321 0.47838598 0.5913506 -0.5313409 -0.09318614 0.61284417 0.735959 -0.45031473 -0.022512015 0.2025224 0.3750516 0.26398003 0.11764027 0.51103556
each -0.41095132 -0.22494945 0.55139554 0.30912572 -0.10758643 -0.026557306 0.8703466 0.3429985 -0.30321532 0.17579406 0.21199036 0.30143726 0.6610996 -0.20557417 -0.19996059
without 0.24212523 0.10627158 0.110927604 0.27954075 -0.28066686 -0.34747192 1.0782043 0.19072099 -0.34240317 0.74875355 0.29459217 -0.19499354 0.46394217 -0.24733187 0.2588237
regard -0.43413278 0.1654848 0.15479434 0.29082894 0.57330084 -0.4015765 0.8625865 -0.080637835 -1.0391487 0.2225271 0.021829642 0.0734531 -0.2530389 -0.6917942 0.6366862
act -0.11947556 0.8241837 0.17293732 0.5162233 -0.02047624 -0.9151207 0.84010535 -0.76393956 -0.8928587 0.33824736 -0.12282999 0.28993645 0.68800944 -1.2907794 0.25308236
might -0.27192286 0.05374968 0.45384815 0.30019036 -0.15423448 -0.10751906 0.5355095 0.470272 -1.0788252 0.45756248 0.053372543 0.35508946 -0.2605793 -0.116736785 0.42842403
sister -0.4974789 -0.66170055 0.075299874 -0.33113566 -0.3432743 -0.22037847 0.90149707 1.0647768 -0.09339118 -0.4796121 1.3035123 0.112306155 -0.17371437 -0.5984153 0.20970458
support -0.30394518 0.007848366 0.20122163 0.79437405 0.4599798 0.031068124 0.9231491 0.42517862 0.012534121 0.09899446 0.54097784 0.72134566 0.39821392 -0.3159682 0.6892646
does -0.47481886 0.10200877 0.269139 0.22042796 -0.30049285 -0.09872206 0.43438593 0.25039384 -0.97833204 -0.13355547 0.60227084 0.27280283 0.37585416 -0.4051291 0.8542137
inaudible -0.5118011 -0.7550942 0.5666027 -0.019025836 -0.06973528 -0.14905891 0.47676367 0.43587947 -0.5800061 -0.16418672 0.6700834 -0.045367703 0.24500456 -0.5768873 0.30847767
yourself -0.044595048 -0.6643568 0.111052416 0.3624968 0.18690296 0.17931317 0.5804456 0.6091945 -0.8470344 0.46476784 0.53156084 0.5971709 0.34134132 -0.27332675 0.549077
stayed 0.15064253 -0.75268865 0.46047512 0.29873362 -0.52254057 0.023571843 1.1417689 1.1653677 0.23241262 0.01142483 0.54732984 -0.80138725 -0.20730184 -0.60776263 -0.13322501
stay -0.2612973 -0.48532787 0.49126124 0.24729036 -0.58547664 0.59695107 0.88350004 0.96591634 0.22988318 0.11344312 0.7374025 0.10560758 -0.28365457 -0.67165947 0.25559103
operation -0.48215023 0.4164102 0.04957918 0.46766773 0.39351082 -0.89796126 0.5842347 0.9126415 -0.5915936 0.67491317 -0.3476791 -0.6747127 -0.47937983 -0.6938286 0.61562574
street -0.617737 -0.42705426 1.2280523 -0.26404634 -0.4595094 -0.28421777 0.45028672 0.68635577 0.030767322 -0.4439979 0.15814002 0.29426348 -0.4900079 -1.0332092 -0.8886279
township -0.49355146 -0.76577795 0.7344841 0.701083 -0.5319111 0.35417655 0.47923413 0.5500454 0.1442999 0.33140665 0.10384233 0.47358745 -0.42905197 -0.98729336 -0.3486871
possible -0.021027397 0.22615144 0.55063826 0.36804008 0.4621835 -0.19431639 0.8206259 0.22184068 -0.96730876 0.5393141 0.123827055 0.45904592 -0.32244208 -0.15153891 0.3934417
hope 0.6380233 -0.07382081 0.6647744 0.5003971 0.35878927 0.02032278 1.0429279 0.40977255 -0.5657039 0.21607383 0.88953507 1.0620391 -0.060992416 0.05561547 0.36172086
inkatha -1.1267095 -0.6071881 0.44336447 0.49381214 -0.6774684 -0.09285695 0.5673289 0.3470886 0.12030691 0.36821905 -0.25362274 1.1106747 0.29450646 -0.92482984 -0.16256686
kept 0.38570058 -0.35364893 0.4858931 -0.047622178 -0.8711011 -0.2266731 1.0741115 0.73893315 -0.24720643 0.094067454 -0.16809659 -0.27316228 0.36464468 -0.07601964 -0.085706964
human 0.34769547 0.3350034 0.21160696 0.9000135 0.72498935 -0.37668568 1.0818121 -0.58726245 -0.8594414 -0.8174361 0.9405379 1.212243 0.22151707 -1.0704719 -0.2266752
didnt 0.08406442 0.02440798 0.5369209 -0.23693852 -1.2172663 0.5631172 0.9532286 0.32865542 -0.6396659 0.033869933 0.20731655 0.20694605 0.14955166 -0.44638845 0.29260224
seen -0.25782648 -0.28061926 0.4209154 0.60385334 -0.49838156 -0.41895807 0.6507463 0.19294986 -0.71988755 -0.23806709 0.20094159 0.28161272 -0.1919421 -0.26246244 -0.18549669
oath 0.9521111 -0.23950638 -0.1876781 -1.4500648 1.0256445 -0.19781367 1.5634375 0.67098343 -0.9093385 0.349687 0.6183477 0.9610946 0.89854884 -0.88496435 1.0672762
national -0.20453294 0.10150695 1.0944072 1.0475668 0.22745009 -1.0902728 0.7641264 -0.06956931 0.41026443 -0.18672325 -0.36804786 0.82745266 0.5911467 -0.90245736 0.7397284
else -0.22975887 -0.09848501 0.21978566 -0.23679106 -0.61132914 0.5920253 0.6362213 0.39868885 -1.2782431 -0.06866715 0.528618 0.5270263 -0.35211065 -0.5506588 0.53267574
every 0.26553187 -0.081327744 0.8247053 0.42287806 -0.40017095 -0.09817855 0.94369346 0.5059082 -0.21605435 0.23919247 0.2770823 -0.24162501 0.42444357 -0.024033612 0.1435971
somebody -0.34276697 -0.16627662 0.4128643 -0.29247212 -0.70459783 -0.047764394 0.61506903 0.64474916 -0.64112496 -0.20935306 0.15806296 0.4363228 0.087029874 -0.20950605 0.104655445
period 0.642323 -0.8464653 0.5705872 0.9159945 0.10929394 -0.71666396 0.6555328 0.290501 -0.41276968 0.5491182 -0.07689264 -0.28908405 0.08293689 -0.5884511 0.0511943
towards -0.46392748 -0.0077835065 1.3094914 0.11205034 -0.32786182 -0.6382294 0.40394163 0.6851181 0.21074598 0.3312686 0.11004129 0.8147731 -0.3176641 -0.3843043 -0.48472032
different -0.3625442 -0.46366894 0.9315018 0.8554869 0.20093668 -0.16181311 0.7691073 0.07630697 -0.6203447 0.23987944 0.033164956 0.16283017 0.4013351 -0.1925646 -0.40002605
r -0.2820279 1.0088247 0.33869517 -0.13191432 -0.028323257 0.50574374 0.9053693 0.3196732 -0.46817046 -0.04531832 0.5359206 -1.229962 0.5261195 -1.4837673 0.53092587
soldiers -0.60041046 -0.38033107 0.481956 0.36163193 -0.67950124 -0.38070178 1.135679 0.77645385 -0.007240479 0.36678275 -0.46427268 0.44765338 -0.02818935 -0.094792634 -0.6682923
assist -0.5083354 0.028481012 0.16300008 -0.12702915 1.1093448 0.024225762 1.2533484 0.45684016 -0.7020731 0.05171312 0.36376783 0.794295 -0.29035422 -0.23471147 0.5708041
too 0.17664714 -0.37658557 0.52581185 0.16559581 -0.14556153 -0.05834488 0.4522004 1.0236334 -0.59460914 0.033918943 0.37056288 0.37813386 0.05106525 0.03298636 0.34244955
party -0.3175534 -0.20278302 0.3981216 0.80194426 -0.4384981 -0.61019796 0.31089792 -0.034128897 0.21304329 -0.08672963 -0.5059056 0.91632813 0.5288434 -1.242392 0.7587335
conflict -0.2921097 -0.50866735 0.7526711 1.2629899 -0.11262797 -0.27402344 0.23058821 -0.13281555 -0.64777255 0.691908 0.17325984 0.98064375 -0.15203111 -0.99307853 -0.1483475
months 0.5993038 -0.9075741 0.3965008 0.6293677 -0.23744473 -0.3082643 1.073389 0.6671011 -0.29139557 0.2415765 0.7336677 -1.4748758 0.5281479 -0.9217802 0.0080737695
looked -0.31404153 0.19115278 0.7091277 -0.25563753 -0.66414005 -0.37092492 0.6901954 0.9216238 -0.5696742 -0.27599025 0.35628566 0.1746378 0.09590624 -0.048373215 -0.6185479
amnesty 0.4230287 0.57226443 0.30802962 -0.07184282 0.5191264 -0.66486055 1.0258589 -0.939083 -1.2637944 0.08914147 0.4821641 0.26510748 -0.023122901 -1.500949 0.57953376
road -0.51703215 0.10923626 1.4828221 -0.111977875 0.020041596 -0.44382313 0.54603344 1.0013665 0.09004134 0.09917519 -0.14104491 0.42972484 -0.8768673 -0.6976674 -0.990731
assaulted -0.028182702 -0.6503002 -0.38062987 -0.008528763 -1.207869 -0.35071748 0.98358226 0.7943536 -0.80926204 0.02107501 -0.2871922 -0.015484975 0.24494652 -0.37239754 -0.4805078
pain 0.9621797 -0.0031370034 0.03201967 0.57232666 -0.17412087 -0.15796626 0.5803162 1.0434774 -1.037096 0.2610542 1.129478 0.77699864 -0.06009386 0.0965918 -0.21152432
five -0.27555633 -1.0852631 0.6438614 0.121681966 0.0931576 -0.11336212 0.96803355 0.60590017 -0.23162726 0.40073848 0.5743266 -1.006042 0.8152623 -0.782106 -0.42546985
charge 0.10688521 0.101929985 0.15583937 -0.06864951 -0.95307904 -0.13792324 1.3653734 -0.21144952 -0.6846033 -0.11703761 -0.66694695 -0.4227498 0.104315825 -0.88261527 -0.11237632
treatment 0.7434494 0.5080147 -0.16341951 0.7806891 0.07581873 0.51037 1.0651193 1.1472838 -1.0533123 -0.09943723 1.0161072 -1.0088153 -0.36698714 -0.44055638 0.6856208
realised -0.37086996 0.14498149 0.6130539 0.10094105 -0.98350257 -0.3382301 0.5013237 0.8774304 -0.24397258 0.3845983 0.14608772 0.21169053 -0.050578307 -0.26793802 -0.11552915
witnesses 0.44870147 -0.8354864 0.50230974 -0.10544383 0.4883505 0.056295253 1.311871 -0.07368855 -0.9607038 0.10309233 0.052252833 0.5206453 0.26152232 -0.30752245 -0.3491895
especially 0.014057683 -0.63876754 0.30236554 0.97073275 0.06522724 -0.2110896 0.7136446 0.5750873 -0.43110192 -0.08564995 0.34328642 0.5400986 0.12485008 0.0075687747 -0.017054414
sitting -0.18749443 -0.58865213 1.1238521 -0.47511235 -0.17807813 -0.2596999 0.670146 0.7456828 -0.27362114 -0.29905608 0.6101983 0.39515692 0.33910936 -0.20112154 -0.507506
behind -0.44222134 -0.117426395 0.70814204 -0.23836161 -0.3148873 -0.4755497 0.70106465 0.8204097 -0.2361426 0.31733936 0.14518705 0.24780798 0.47799015 -0.11170468 -0.55046207
moment -0.3741274 -0.28477523 0.93727815 0.18270455 0.03365193 0.044022124 0.3176846 0.6322211 -0.41957006 0.027443675 0.8031959 0.14210713 0.19018012 -0.4090057 0.645557
aware -0.18393703 -0.2529858 0.46187574 0.71680206 -0.46155152 -0.3714706 0.4775566 0.17038213 -0.7386244 0.15428123 -0.3205716 0.24896349 -0.29655936 -0.51682884 0.5045279
parents -0.37868696 -0.44836742 0.03159377 0.5385093 -0.45450518 0.036540758 0.98228854 0.4617796 0.11791677 -0.009406069 1.1089858 0.28364676 0.04174981 -0.552309 0.271506
read 0.1873566 -0.20249465 1.0639896 -0.43903002 0.085000195 -0.58556706 0.66304696 -0.08203806 -1.2110248 -0.3181517 0.05083122 -0.23837598 0.6015293 -0.46105707 0.5443665
dit 1.3697516 1.3677275 0.16588913 -0.22819908 0.06675109 0.033067383 -0.1267471 2.7745798 -1.4488714 -0.7036906 -0.032624792 0.7757462 0.9884442 -3.9484477 0.46033877
letter -0.08014562 0.15548798 0.67214936 -0.24989705 -0.2927181 -0.6244046 1.435009 -0.06862583 -0.24756959 -0.83262944 0.12921281 -0.57643586 0.12781216 -0.6532474 1.0671095
full -0.27627215 0.22905552 0.573153 -0.099629536 0.1973708 -0.79011357 0.8622274 0.0997975 -0.7099905 0.04407136 0.5530562 -0.04324121 0.5537136 -0.09157159 -0.17244552
important 0.10489141 -0.1907959 0.86210173 0.9043951 0.4506681 -0.29070535 0.4847 0.21732077 -0.98453885 0.116164126 0.24120395 0.6831868 0.26464665 -0.06997899 0.5373821
known -0.7376295 -0.4212457 0.13447301 0.85513425 -0.22473966 -0.48077375 0.44336846 0.3493533 -0.5092903 -0.50143105 -0.44142103 0.45490077 -0.06732115 -0.67604446 0.24841519
boy -0.8693446 -0.8483838 0.37699145 -0.28247067 -0.86075515 -0.36942115 0.40019315 1.0842514 -0.26829904 -0.4713929 0.76787984 -0.003953355 0.6271411 -0.6814005 -0.20480818
church -0.29295775 -0.2535875 1.3288957 0.2880425 -0.51569235 -0.34656516 0.69218457 0.0976634 0.66302365 -0.2616888 0.5441868 0.9048415 0.025099419 -0.80474156 -0.08697409
new 0.0858961 0.08956785 1.045019 0.7949399 0.013727762 -0.63231605 0.764362 0.30615205 0.36399847 -0.3999824 0.38663667 0.3883096 0.30063787 -0.27142525 0.14552686
happen 0.19700585 -0.15846172 0.5428363 0.35091394 -0.6645249 0.26784474 0.8677551 0.22984636 -0.7716977 0.4698176 0.2347376 0.595038 -0.3913336 -0.27611697 0.22962289
continue 0.11089458 -0.14169484 0.5244586 -0.07193486 0.08173335 0.076902755 0.84593004 0.4982553 -0.18182376 0.65736437 0.4563178 0.2144953 0.15292986 -0.39356497 0.9368377
exactly -0.39996728 -0.4299861 0.4275142 0.021209758 -0.58221257 -0.005164914 0.50533175 0.44288036 -1.0802139 0.33146802 0.19437581 0.15290664 -0.39492765 -0.4128316 0.41712523
defence -0.44617012 0.44575956 0.4415012 0.9634109 0.05682768 -1.1951599 1.0182656 0.30043915 -0.25188556 -0.2358146 -0.92000234 0.37185973 -0.0009800248 -0.50553083 0.43419287
open -0.0639337 0.33257356 0.7916921 -0.63608366 -0.77391946 -0.58776236 0.9760389 0.3979369 -0.1655264 0.2707129 0.11013987 0.54962885 0.44830236 -0.21488619 -0.5143291
wat 1.379808 1.0354165 0.1492618 -0.2220588 -0.14082284 0.08461426 0.30606443 2.5880437 -1.0953195 -0.8676534 -0.46998674 0.8061008 0.5399585 -4.229142 -0.17185107
room -0.22375621 -0.08898624 0.89464617 -0.6526781 -0.25095323 -0.26242486 1.0367492 0.7721197 -0.1461792 -0.10528153 0.24821305 -0.25143844 0.5157545 -0.34660047 -0.67283237
friends -0.42676565 -0.7560426 0.15999366 0.27263647 -0.24090113 -0.019278755 0.9617254 0.8062299 -0.10416846 -0.2565401 0.47317895 0.38218027 0.025597977 -0.20194785 0.08053763
military -0.62570655 0.3131553 0.3399465 1.2823774 0.5581215 -1.0636497 0.81183934 0.9385661 0.07726786 0.3233112 -0.6746238 -0.27890077 0.27921897 -0.5739926 0.4319641
words -0.04192026 -0.17939734 0.17574638 0.026783308 0.15143713 -0.23966192 0.5085174 0.45584574 -0.82976884 0.2959612 0.075562306 0.5105827 0.35921544 -0.29139066 0.42681557
houses -0.97340375 -0.03305734 0.3460301 0.47747934 -0.33254576 0.5451018 1.1043655 0.19842288 -0.11093406 0.5182321 0.46723366 0.4347647 0.1373258 -1.0351169 -1.176938
answer -0.043138556 -0.061845396 0.47325933 -0.4788659 -0.41200107 0.046535447 0.86096823 0.26086733 -0.97945684 0.2522741 -0.17524055 0.2932768 0.5721097 -0.25726074 0.798625
true -0.47113454 -0.2852694 0.42306137 0.122811384 -0.52880025 -0.47606945 0.19366454 0.043101072 -0.80801296 -0.277916 0.5075424 0.378311 0.10209737 -0.81102633 0.5370214
passed -0.36469874 -0.28932038 0.609896 -0.21067624 -0.61833715 -0.60728765 0.72943676 0.71219075 0.32746565 -0.12480751 1.0167369 -9.4708645e-05 -0.14209042 -0.7352729 -0.056871403
daughter -0.3403232 -0.9183449 0.1533532 -0.22839701 -0.25461653 -0.45158786 0.68433636 0.912634 -0.24299593 -0.27173588 1.5612872 0.13467269 0.06701516 -0.60312754 0.12288745
attacked -0.88528335 -0.76936287 -0.02579998 0.30774075 -0.6544803 -0.043266207 0.7403577 0.4518702 -0.39592472 0.5686484 0.050856344 0.48871958 -0.32992345 -0.8567363 -0.39766264
bring -0.051727206 0.44059178 0.4362103 -0.0089892885 -0.04453381 0.12715988 1.1099997 0.27522737 -0.16028711 -0.0011521226 0.47010416 0.5579932 0.029552178 -0.2528975 0.20254047
testimony 0.567245 -0.6335646 0.42750487 -0.19454452 0.78286296 -0.094042964 0.92301685 0.14578745 -1.2514257 -0.02714916 0.2720812 0.64265263 -0.025471378 -0.44203892 0.1579538
problems -0.12571377 -0.057370875 0.4996521 0.9812112 -0.061124686 0.4259981 0.6010727 0.75974756 -0.44737166 0.5378069 0.45225853 0.07803236 -0.43874973 -0.3190296 0.5028796
unit -1.0537171 -0.28366593 0.16305296 0.7437207 0.65629876 -0.5640881 1.1495237 0.62311745 -0.56664383 -0.0990985 -0.7645092 -0.3250219 -0.43741187 -0.58256656 0.13001437
general 0.090779096 0.18713702 0.58287495 0.5661953 -0.029514661 -0.61646163 0.7553149 0.23604684 -0.6653994 -0.4114601 -1.0228179 0.12717152 -0.37286854 -0.5928557 0.8574777
therefore -0.19294584 0.245593 0.2853297 0.24421933 -0.19478917 -0.31923416 0.9015157 0.10070952 -0.28348404 0.3644063 0.16485146 0.51726764 0.08068498 -0.37296206 0.46028492
detained 0.4939622 -1.1011267 -0.11981482 0.51837504 -0.63364214 -0.29804483 1.1921556 0.30469853 -0.44703132 0.1461048 -0.23137571 -0.6841856 0.24508253 -0.7916716 0.1481183
ifp -1.271201 -0.6544539 0.2931643 0.5646719 -0.4276748 -0.09873987 0.48580042 0.13807409 -0.16979222 0.37509498 -0.20606151 0.9977113 -0.11985822 -1.251477 0.20911823
women -0.0716415 -0.7147544 0.2696384 1.0045595 -0.20869206 0.1465084 0.9771552 0.32580173 -0.14672169 -0.17702416 0.33469024 0.62349504 0.7017983 -0.31500417 -0.7104089
running -0.7671499 -0.25435323 0.818841 -0.123581834 -0.885085 -0.22519477 0.42559847 1.2275039 -0.17850733 0.6275743 0.34518036 0.60550684 -0.05329582 -0.4491775 -0.73676234
became -0.05188341 -0.35938528 0.3683665 1.1398401 -0.62334925 -0.6767383 0.24873671 0.85450304 -0.11590464 0.23932768 -0.2466548 0.22020435 -0.053248707 -0.33059537 0.36881152
chief -0.72490275 -0.5229933 0.5878999 -0.008655246 -0.404006 -0.24514264 0.9238528 0.1252293 0.022963421 -0.65676033 -0.7130536 1.1202981 -0.20412815 -0.8226238 0.64798665
once 0.20051935 -0.36877418 0.49043214 0.03548766 -0.10727622 -0.48678747 0.8533715 0.60097086 -0.47226053 0.23186676 -0.019889042 -0.08902838 0.09368372 -0.05019612 0.34495327
law 0.5451247 0.5007222 0.23577517 0.3447603 -0.54721165 -0.50359905 1.2804371 -0.7075951 -0.4310558 -0.04871391 0.10419362 0.4094936 0.5149393 -0.7712458 0.33038402
run -0.55024976 0.1124689 0.4182385 -0.24134848 -0.92158204 -0.28204238 0.89968896 1.1581795 0.22907886 0.6744464 0.3541203 0.5716254 0.037446722 -0.27841508 -0.055886153
udf -0.9030495 -0.7149803 0.4565884 0.90232897 -0.54837364 -0.23119229 0.7192389 0.06932665 0.22918692 0.19463927 -0.24914534 0.7680522 0.5627911 -1.0288187 0.14941153
themselves -0.34302732 0.04330455 0.15722008 0.49731234 -0.28568912 0.046953574 1.090781 0.04389174 -0.32587153 0.18135192 -0.19459161 0.9041644 0.52907854 -0.29264247 -0.36657897
statements 0.07110315 -0.3778172 0.6433195 0.039542824 0.42118934 0.18450525 1.5091954 -0.45093217 -1.1681913 -0.20441605 -0.03922464 0.1516216 0.08840659 -0.40293697 -0.12165578
apartheid 0.7135382 0.39087546 0.09927726 1.3248419 -0.44001412 -0.66669583 0.5795804 0.032216437 -0.18954425 0.07748085 -0.086167924 1.0410768 0.7600379 -0.72840536 -0.21889886
late -0.09287681 -1.0047176 0.46925634 -0.08391461 -0.37999848 -0.59744185 0.72077996 0.9323345 0.15047674 0.017533617 0.050379116 -0.012564356 -0.2836895 -0.47048917 0.42358366
course -0.025469976 -0.14251126 0.45929477 0.73670727 0.049032442 -0.70888984 0.7283117 0.10428896 -0.3651663 0.2667207 0.039946374 -0.04845086 0.28941265 -0.39662728 0.29139486
branch -0.38583195 -0.2717451 0.5250973 0.84783065 -0.14714712 -0.5242588 1.1054358 0.6813921 -0.28426853 -0.744651 -1.1167008 -0.31390893 0.00737839 -0.36940223 0.23242542
someone -0.41482678 -0.14350028 0.3028807 -0.12473967 -0.63277745 0.016996669 0.6232504 0.6257034 -0.64408916 -0.27722728 0.2203631 0.6172468 0.055771206 -0.22468624 0.05685495
felt 0.42975727 0.2542408 0.45371318 0.44921407 -0.879466 -0.32339796 0.46741185 0.825319 -0.39081582 0.32567593 0.17813468 0.4798909 0.18682396 0.022473894 0.35649073
himself -0.042894132 -0.041992426 -0.5818646 -0.31196776 -0.77746135 -0.59562385 0.9487999 0.40016112 -0.49399427 -0.29594415 -0.032595776 0.5899813 0.07208652 -0.52178884 0.20230971
thereafter -0.24657258 -0.34126285 0.35011238 -0.090315394 -0.5416861 -0.41885838 1.061256 0.62267494 -0.17713836 0.42353237 0.12893125 -0.47109663 -0.18463509 -0.4131446 -0.04704246
supposed -0.3155642 -0.07100559 0.35128072 -0.07279598 -0.61682975 0.11635793 1.2952412 0.22926432 -0.054679528 -0.0016743122 0.19828807 -0.080202475 0.01735887 -0.46933407 0.3274611
wish 0.33429947 0.08228132 0.40795344 0.012907511 0.22765635 -0.07115158 0.86779666 0.09747457 -0.84725505 0.032053407 0.79541373 0.95797205 -0.195082 -0.3768393 0.93844104
june 0.39902058 -1.1340241 0.84394294 0.22389014 0.0010650023 -0.76593 0.7364072 0.2529103 0.14873087 0.5450146 0.38727558 -0.421269 -0.23302817 -1.1686417 0.1694239
whilst -0.15220197 -0.50117195 0.6095626 -0.120492436 -0.4787065 -0.32798943 0.88065803 0.656688 0.062301148 0.18470542 0.06876694 -0.08628363 0.19431396 -0.3356978 -0.17933553
mention -0.42611876 -0.67798257 0.2725316 0.18175635 0.038777273 0.079658054 0.71386355 0.21566665 -1.1884999 -0.26322255 -0.036645986 0.037174784 0.272212 -0.41896763 0.34452122
informed -0.55949134 -0.04346636 0.056228276 -0.010131448 -0.25753537 -0.4372998 1.2070562 0.37357455 -0.45712236 -0.20154834 -0.5223365 -0.3419638 -0.6482077 -0.6465329 0.44592327
students -0.33007985 -0.5174927 0.8966083 0.8300488 -0.34946448 0.12997325 0.8162757 0.32257178 0.5267316 0.40051708 -0.2133578 0.33771187 0.29521063 -0.7930509 0.040985566
stop -0.21731326 0.16035612 0.7386209 -0.2675392 -0.56981164 0.47424835 0.49149427 0.79635674 -0.25848147 0.5871774 -0.17360593 0.53001136 -0.2431626 -0.60517895 0.06401832
friend -0.7646954 -0.6301359 0.34381256 -0.28467596 -0.35867098 -0.61153746 0.5014419 0.9737279 -0.23397046 -0.7290791 0.49036685 0.23325908 -0.15712397 -0.4637754 0.5158582
six -0.042945616 -1.2077805 0.75936085 0.3581725 -0.054710783 -0.3166148 0.76556534 0.75730425 -0.1863024 0.3037196 0.7353284 -1.0663722 0.82712203 -0.8065336 -0.4806613
arrest -0.16748028 -0.5269078 -0.2794718 0.034503028 -0.728159 -0.28155008 1.2556529 0.36901298 -0.47161952 0.5814255 -0.6034636 -0.11446173 0.1645145 -0.5278377 0.35412592
alive -0.41292518 -0.38103354 0.11690086 0.14955203 -0.7946802 -0.14275321 0.5925074 0.9448235 -0.4649427 -0.6934697 1.1930106 0.2330875 -0.07556158 -0.4476939 0.51647836
getting -0.3556216 0.3041717 0.7372169 0.46748406 -0.181565 0.27030426 0.6659552 0.9224217 -0.3513372 0.3107954 0.70149255 -0.3148521 0.12087122 -0.1237791 0.36695722
gone -0.09027976 -0.34360924 0.5397583 0.2234765 -0.3773795 -0.34780303 0.8617419 0.7724104 -0.29365048 0.00619839 0.7514614 -0.03955668 -0.50619704 -0.10902414 0.086033285
murder -0.20405897 -0.4752476 -0.92697227 0.11510768 -0.21298948 -0.7644881 0.8818526 -0.2733091 -1.0644052 0.08385728 -0.023356589 0.09048048 -0.16049607 -1.5805725 -0.027445793
killing -0.28567606 -0.59521127 -0.52661264 0.361369 -0.54414576 -0.47453505 0.52263653 0.054482855 -0.8235333 0.27224818 -0.004819642 0.7341371 -0.060414586 -0.90714264 -0.18308236
hit -0.49387217 0.16332573 -0.10160304 -0.2957633 -0.92957705 -1.0458057 0.39745247 1.3125606 -0.7930719 0.3735995 -0.27439696 0.22781494 0.4256186 -0.24853878 -0.5597861
reconciliation 0.49302635 0.51203936 1.1488497 0.5571024 0.54973745 -0.36651736 0.8470725 -0.5267886 -0.7457213 0.04136661 0.6736162 1.632239 -0.30666026 -0.6996908 0.28818247
says -0.2604821 -0.057174914 0.6941446 -0.30209863 -0.27072623 -0.86340594 0.22733876 0.1511552 -0.9761533 -0.403335 0.0703754 0.10308008 0.3093728 -0.63039446 0.64414084
responsible -0.567399 -0.12600467 -0.24721462 0.69333774 -0.1493829 -0.33646128 1.0292983 0.011494331 -0.64186764 -0.052164506 -0.0108009 0.2875276 -0.18500346 -0.52231556 -0.0019212656
giving -0.012032211 -0.42093518 0.17453231 -0.049865823 0.5414791 -0.032479342 1.0570557 0.42203432 -0.8650931 0.13428879 0.1514268 0.3038989 0.4074323 -0.045756128 0.25848475
afternoon 0.5799569 -1.5040284 1.0625582 -0.5099268 0.2913695 -0.09212795 0.84874046 1.2659525 -0.09384433 0.09712749 -0.023909463 -0.040342245 -0.398166 -0.51159525 0.32682246
bomb -0.74727607 0.31756046 0.15341438 0.0024848797 0.047844086 -0.5727862 0.65945554 0.78537023 -0.81282556 0.6486222 -0.017159516 -0.42723322 -1.0720155 -0.876184 -0.64604044
mk -1.0500405 -0.2837618 -0.38788217 0.99979603 0.36344397 -0.8940042 0.91422915 0.90307295 -0.22368652 0.24977371 -0.6377537 0.18014404 0.17858757 -0.49104145 0.53230906
vehicle -0.9926567 0.28881657 0.62238854 -0.4945684 0.13638158 -0.4731322 0.77429175 1.0495943 -0.72847384 0.104852304 -0.6547309 -0.11766123 -0.70863473 -0.743479 -0.87746334
affected 0.21796234 -0.37402555 -0.44636407 1.0726199 -0.35436136 -0.28397775 0.35207602 1.0645517 -1.042405 0.25545356 1.381949 0.116820075 -0.107800655 -0.39575028 0.20080034
activities -0.43565875 -0.25070915 -0.0436636 1.2362114 0.07273659 -0.29684448 0.73937106 0.26393813 -0.3837678 0.48702654 -0.55490047 0.1289347 0.097875364 -0.82464564 0.5905953
investigate -0.4033788 -0.0908642 0.13619663 -0.03443215 0.011321762 0.011823666 1.5290062 -0.08462635 -0.95705473 0.16666794 0.42183694 0.6088318 -0.7405689 -0.29859096 0.28447124
its 0.67191255 -0.0922872 0.9661218 0.3317802 -0.27531335 0.11301743 0.23366179 0.54841065 -1.0104843 -0.2174413 0.6077047 0.32748938 0.29739144 -0.1765426 0.11407399
shoot -0.80414253 0.11258231 0.080785826 -0.55603707 -1.0618172 -0.016359942 0.65289634 0.91397 -0.6279108 0.6893097 -0.33619884 0.66181153 0.058913928 -0.57229453 -0.059613347
buried -0.29335165 -0.2800866 -0.10474135 -0.113209866 -0.7067816 -0.48595184 1.4782547 0.31667945 0.17080608 0.18712461 1.2041291 0.21776548 -0.80358696 -0.77002174 0.033597972
youve 0.05626904 -0.94214624 0.24926507 0.28976384 0.32296833 -0.18583037 0.7774556 0.5043918 -1.215827 -0.042682707 0.52242863 0.21827747 -0.16676427 -0.092479765 0.3272958
oclock 0.23299958 -1.0661848 1.4407833 -0.5216642 -0.34272525 0.03974151 1.0758723 1.054254 0.09683998 0.5335988 0.1428638 -0.7090777 -0.08689775 -0.76631874 -0.2785814
lawyer 0.02143255 0.1242905 0.115661144 -0.25861043 -0.7013149 0.30305916 1.6270489 -0.2779649 -0.44740105 -1.0128347 0.3911585 -0.08035729 -0.14591132 -1.013959 0.6081389
opened -0.37884513 0.05118662 0.90044445 -0.9370323 -0.8419935 -0.64517623 1.0224267 0.5715887 -0.16267267 -0.112422064 0.045928974 0.15003318 0.46631297 -0.45680118 -0.7272783
better 0.17162614 0.18008704 0.6884371 0.4411621 -0.27514732 0.2704394 0.60785836 1.0225557 -0.5123935 0.25553763 0.3391251 0.18380955 0.0069144117 0.08985794 0.7725891
means -0.30383983 0.5805343 0.21666685 0.36770996 0.03997647 -0.26095536 0.83393925 0.20795397 -0.3633465 0.43777487 0.16282998 0.39004487 0.3731277 -0.35320643 0.23658319
whom -0.81847286 -0.493188 0.08135448 0.34610572 -0.27827385 -0.12655473 0.965331 0.36360952 -0.466283 -0.71488184 0.07099264 0.34827298 0.23354805 -0.3141021 0.15881157
nobody -0.06466292 0.0043548252 0.31304678 0.02537729 -1.0845063 -0.06730457 1.1257513 0.26399335 -0.56342596 -0.086390644 0.30472204 0.1687688 -0.3332438 -0.31668314 0.09793543
position -0.54156727 0.24338502 0.7346209 0.40016112 0.08156075 -0.44473737 0.46924272 0.2606964 -0.45300123 0.18704431 -0.039760765 0.30374187 0.09210978 -0.42568088 0.48505855
meet -0.34632528 -0.080773376 0.7931323 -0.003956207 0.010689833 0.24433216 1.2114518 0.3957074 0.056199085 -0.16854472 0.035518922 0.24029925 -0.3516316 -0.39427614 0.7234952
born -0.089377515 -1.0847067 0.63517624 0.25795114 -0.4556304 -0.7471631 0.028715422 0.6830825 0.10081469 -0.64362556 1.5096226 -0.25687304 0.42550835 -1.5891051 0.6497231
fighting -0.3693464 -0.38016057 0.4110862 0.8931821 -0.8676755 0.112950265 0.5824812 0.32062206 0.055371895 0.33563986 0.07138256 1.0239549 0.5791737 -0.695116 -0.31603503
cell 0.73917496 -0.28027993 0.52177083 -0.2780385 -0.7704692 -0.10095799 1.2161303 1.1331307 -0.1071168 -0.013201855 -0.28016725 -0.6245808 0.5174681 -0.3045561 -0.4738191
peace 0.11419024 0.19425869 0.7724269 0.64131093 -0.31231225 -0.2511259 0.8266704 0.13263363 0.1499376 0.1944187 0.3810886 1.4976004 -0.33564568 -0.44269156 0.49755964
section -0.5424103 0.07146446 0.8670783 0.21696277 0.21391541 -0.7460023 0.5471037 -0.4106865 -0.41551653 0.008667829 -0.014595045 -0.34069598 0.3188584 -1.3423253 -0.14865185
ive -0.39904267 -0.40321153 0.70549494 0.16119884 -0.22670904 -0.40900472 0.4352373 0.39088318 -0.97240084 -0.24746415 0.5001735 -0.2114682 -0.013152668 -0.29335922 0.4626347
held 0.026774237 -0.32273516 0.6453541 0.22683318 -0.5106574 -0.85134405 1.0220165 -0.1710229 -0.076293975 0.14751238 -0.21609977 -0.2491456 0.05940944 -0.6855431 0.002097932
process 0.32828808 0.22326532 0.6080856 0.50792795 0.37425727 -0.5705963 0.7189436 0.057898927 -0.49950734 0.47946343 0.25176415 0.9235744 -0.28630766 -0.3443795 0.28116342
god 0.7831795 0.6448955 0.3304011 -0.023987064 -0.4829298 -0.079903 0.7591616 0.75027114 -0.35024446 -0.41590923 1.0687742 1.7108656 0.17725562 -0.08673002 0.39071453
areas -0.41516557 -0.11311115 0.73268044 1.4815446 0.4770676 -0.02356579 0.73941565 0.44713596 -0.0927732 0.27470052 -0.20561662 0.4851509 -0.3832548 -0.7316189 -0.8220298
stopped -0.6464193 -0.029278317 0.9500613 -0.25837982 -0.72692853 0.08888512 0.6383885 0.9969245 -0.1289003 0.12021366 -0.28941634 -0.007988972 -0.28899062 -0.60430586 -0.42196015
special -0.4251534 -0.48758507 0.48915035 0.77029973 0.52432275 -0.41725 1.0539644 0.88495773 -0.60595566 -0.5553499 -0.66448957 -0.18726492 0.14970265 0.19522008 0.09397675
president 0.37479615 0.04472495 0.3716614 0.115428954 0.19760439 -0.852817 1.5651029 -0.10910555 0.13004707 -0.3469414 -0.07526809 0.7256138 -0.048842657 -0.54575086 1.4113859
woman -0.27481538 -0.46137354 0.22183459 0.40881658 -0.56286114 -0.24151134 0.601229 0.69110906 -0.43946233 -0.6018212 0.5469531 0.49499807 0.4692428 -0.17131844 -0.20143387
gun -0.94320965 0.10532938 0.26382577 -0.7207916 -0.95148915 -0.45564368 0.3847326 1.209142 -0.91492903 0.42746702 0.0009132284 0.22833344 0.66263276 -0.45857587 -0.43057293
detention 0.8214565 -0.86227256 -0.3354345 0.7810412 -0.24266192 -0.5521055 1.1566013 0.3715625 -0.6841873 0.33599737 -0.009459413 -0.730017 0.27842617 -0.5877506 0.18491486
armed -1.1025 -0.09439371 -0.18261224 0.49240547 0.043344785 -0.73835516 0.6208591 0.8126054 -0.2526363 1.0294138 -0.7291275 0.33414912 0.7956023 -0.7376207 -0.43745828
live -0.23966 -0.12054344 0.46213853 0.6182539 -0.06473372 0.44513464 0.3262974 0.69471014 -0.17666218 0.05944923 1.0925356 0.5027931 -0.10183847 -0.7089593 0.049776137
referred -0.43518052 -0.13919471 0.41644746 0.08599261 0.2378379 -0.70502466 0.7060455 -0.016315054 -0.76264215 -0.4001515 -0.16180512 -0.19766217 -0.094152555 -0.74874693 0.20182768
standing -0.57249415 -0.23229283 1.0682206 -0.39247075 -0.545291 -0.3717825 0.5445616 0.67292506 -0.32075524 -0.090561874 -0.009563596 0.47806945 0.3701135 -0.42906016 -0.8702532
sort -0.19340496 0.20162451 0.6207643 0.53940344 -0.08134402 -0.035202492 0.370973 0.5164272 -0.74036455 0.29794687 0.14086428 0.18609193 0.065396175 -0.1400514 0.027214287
hes -0.68832767 -0.3960932 0.4495707 0.24928248 -0.6513113 -0.2822923 0.34379643 0.95041245 -0.5112405 -1.0397002 0.47233716 -0.06453654 0.07885974 -0.45039377 0.89238787
action -0.087423965 0.58527553 0.13045043 0.70163256 -0.06300091 -0.44997793 0.8884546 -0.040911525 -0.310192 1.0143968 -0.6425553 0.26787722 -0.08789148 -1.0704056 0.34549618
week 0.54068846 -0.44507298 0.7032424 0.15231813 -0.4204232 -0.41540703 1.1738658 0.47912478 0.018432597 0.2899069 0.29903865 -0.9085994 -0.33337414 -0.6371442 0.27178907
yet 0.033913158 -0.15880585 0.5926072 0.32814002 -0.52890724 -0.290682 0.7297012 0.2209706 -0.37377113 0.015808254 0.49486932 0.11987545 0.053973965 -0.2538967 0.21219347
im 0.30019608 -0.37494645 0.8740598 0.056221887 -0.42658818 0.5213745 0.5210339 0.57241577 -0.58602214 -0.43947914 0.5233671 0.3478368 0.6082473 -0.362567 0.8662312
